{"learner":{"attributes":{"scikit_learn":"{\"_estimator_type\": \"regressor\"}"},"feature_names":["pm25_lagging_3day_mean","temperature_2m_mean","precipitation_sum","wind_speed_10m_max","wind_direction_10m_dominant"],"feature_types":["float","float","float","float","float"],"gradient_booster":{"model":{"gbtree_model_param":{"num_parallel_tree":"1","num_trees":"100"},"iteration_indptr":[0,1,2,3,4,5,6,7,8,9,10,11,12,13,14,15,16,17,18,19,20,21,22,23,24,25,26,27,28,29,30,31,32,33,34,35,36,37,38,39,40,41,42,43,44,45,46,47,48,49,50,51,52,53,54,55,56,57,58,59,60,61,62,63,64,65,66,67,68,69,70,71,72,73,74,75,76,77,78,79,80,81,82,83,84,85,86,87,88,89,90,91,92,93,94,95,96,97,98,99,100],"tree_info":[0,0,0,0,0,0,0,0,0,0,0,0,0,0,0,0,0,0,0,0,0,0,0,0,0,0,0,0,0,0,0,0,0,0,0,0,0,0,0,0,0,0,0,0,0,0,0,0,0,0,0,0,0,0,0,0,0,0,0,0,0,0,0,0,0,0,0,0,0,0,0,0,0,0,0,0,0,0,0,0,0,0,0,0,0,0,0,0,0,0,0,0,0,0,0,0,0,0,0,0],"trees":[{"base_weights":[6.1071984E-7,-4.76195E0,1.0719058E1,-1.1976826E0,-7.9559107E0,7.2210474E0,1.9407154E1,-4.077929E0,2.382177E0,-1.1522143E1,-6.186082E0,1.261106E1,3.528398E0,1.6391087E1,3.1030355E1,-7.64432E0,-2.2454762E0,-2.8341112E0,3.3198147E0,-8.498574E0,-1.2881852E1,1.8074699E-1,-7.191077E0,1.5839537E1,5.804449E0,1.0219752E1,1.1635488E0,1.8486462E1,1.6485177E0,3.3358772E1,6.1969423E0,-9.28613E0,-5.5110135E0,-5.7506094E0,-9.880393E-1,3.6214962E0,-4.492626E0,4.149882E0,2.0078105E-1,-5.1575704E0,-1.0598584E1,-1.0535825E1,-1.4210824E1,6.621369E0,-1.8037635E0,-5.23942E0,-9.341156E0,1.6908615E1,4.246451E0,7.740404E-1,1.3410103E1,1.2704575E1,4.0924788E0,5.239455E0,-2.2727327E0,2.0863144E1,8.383398E0,-9.084022E-1,5.699236E0,3.7442666E-1,3.4150124E1,-1.7255734E0,1.0622133E1,-2.0261028E0,-3.0686278E0,-2.02188E0,-4.0696162E-1,-1.1793077E0,-2.857101E0,7.458763E-1,-5.959378E-1,1.7656475E0,-7.133601E-1,-8.026734E-1,-2.4974935E0,1.079822E0,2.5322292E0,-5.662363E-1,1.1801511E0,6.240444E-1,-1.8849366E0,-3.4423008E0,-1.1072534E0,-3.3031585E0,-4.2091736E-1,-2.564679E0,-4.385459E0,2.795364E0,8.473141E-2,-9.573763E-1,1.843968E0,-1.1096492E0,-2.0326602E0,-2.1295557E0,-3.1966233E0,4.671847E0,8.25965E0,2.732314E0,-1.1259556E0,-1.9135512E0,9.8271054E-1,1.9048032E0,6.483557E0,1.7297107E0,4.2957525E0,-8.1526864E-1,1.8814107E0,1.0469927E0,2.8348267E0,-1.5268126E-1,-2.088615E0,1.7390827E0,6.3951135E0,5.480776E0,8.4176505E-1,-1.3635511E0,1.063968E0,5.141875E0,1.1017071E1,3.5992358E0,9.744267E-1],"categories":[],"categories_nodes":[],"categories_segments":[],"categories_sizes":[],"default_left":[0,0,0,0,0,0,0,0,0,0,0,0,0,0,0,0,0,0,0,0,0,0,0,0,0,0,0,0,0,0,0,0,0,0,0,0,0,0,0,0,0,0,0,0,0,0,0,0,0,0,0,0,0,0,0,0,0,0,0,0,0,0,0,0,0,0,0,0,0,0,0,0,0,0,0,0,0,0,0,0,0,0,0,0,0,0,0,0,0,0,0,0,0,0,0,0,0,0,0,0,0,0,0,0,0,0,0,0,0,0,0,0,0,0,0,0,0,0,0,0,0],"id":0,"left_children":[1,3,5,7,9,11,13,15,17,19,21,23,25,27,29,31,33,35,37,39,41,43,45,47,49,51,53,55,57,59,61,63,65,67,69,71,73,75,77,79,81,83,85,87,89,91,93,95,97,99,101,103,105,107,109,111,113,115,-1,-1,117,-1,119,-1,-1,-1,-1,-1,-1,-1,-1,-1,-1,-1,-1,-1,-1,-1,-1,-1,-1,-1,-1,-1,-1,-1,-1,-1,-1,-1,-1,-1,-1,-1,-1,-1,-1,-1,-1,-1,-1,-1,-1,-1,-1,-1,-1,-1,-1,-1,-1,-1,-1,-1,-1,-1,-1,-1,-1,-1,-1],"loss_changes":[1.269455E5,1.9593941E4,2.3109016E4,8.41308E3,5.659672E3,1.0842678E4,7.1687188E3,2.9367656E3,1.7897283E3,1.1238711E3,3.8980684E3,4.786504E3,5.146746E3,5.406379E3,2.3374727E3,4.8470312E2,1.3165634E3,6.158465E2,7.9917017E2,6.188867E2,4.894297E2,1.0855878E3,2.1582695E3,1.7872891E3,2.7825671E3,1.2421484E3,3.401351E3,3.5229102E3,1.0375337E3,9.738125E2,3.2547733E2,1.3382715E2,3.4304248E2,5.049287E2,7.7501324E2,1.7698526E2,2.910865E2,5.4595264E2,5.219279E2,3.3078027E2,3.0851904E2,3.2270898E2,1.7026367E2,3.3922815E2,7.366301E2,6.3283105E2,6.582637E2,1.5153906E3,5.786195E2,8.2609E2,1.5421865E3,5.896494E2,4.0283942E2,7.845647E2,1.088228E3,7.2440234E2,1.6580322E3,3.5635468E2,0E0,0E0,1.0778203E3,0E0,1.5978394E0,0E0,0E0,0E0,0E0,0E0,0E0,0E0,0E0,0E0,0E0,0E0,0E0,0E0,0E0,0E0,0E0,0E0,0E0,0E0,0E0,0E0,0E0,0E0,0E0,0E0,0E0,0E0,0E0,0E0,0E0,0E0,0E0,0E0,0E0,0E0,0E0,0E0,0E0,0E0,0E0,0E0,0E0,0E0,0E0,0E0,0E0,0E0,0E0,0E0,0E0,0E0,0E0,0E0,0E0,0E0,0E0,0E0,0E0],"parents":[2147483647,0,0,1,1,2,2,3,3,4,4,5,5,6,6,7,7,8,8,9,9,10,10,11,11,12,12,13,13,14,14,15,15,16,16,17,17,18,18,19,19,20,20,21,21,22,22,23,23,24,24,25,25,26,26,27,27,28,28,29,29,30,30,31,31,32,32,33,33,34,34,35,35,36,36,37,37,38,38,39,39,40,40,41,41,42,42,43,43,44,44,45,45,46,46,47,47,48,48,49,49,50,50,51,51,52,52,53,53,54,54,55,55,56,56,57,57,60,60,62,62],"right_children":[2,4,6,8,10,12,14,16,18,20,22,24,26,28,30,32,34,36,38,40,42,44,46,48,50,52,54,56,58,60,62,64,66,68,70,72,74,76,78,80,82,84,86,88,90,92,94,96,98,100,102,104,106,108,110,112,114,116,-1,-1,118,-1,120,-1,-1,-1,-1,-1,-1,-1,-1,-1,-1,-1,-1,-1,-1,-1,-1,-1,-1,-1,-1,-1,-1,-1,-1,-1,-1,-1,-1,-1,-1,-1,-1,-1,-1,-1,-1,-1,-1,-1,-1,-1,-1,-1,-1,-1,-1,-1,-1,-1,-1,-1,-1,-1,-1,-1,-1,-1,-1],"split_conditions":[2.9E1,2.2184917E2,4.5333332E1,2.0666666E1,1.5E1,1.8225099E2,5.8333332E1,1.4333333E1,4.433002E1,1.584E1,1.35515E1,1.757744E1,1.405845E1,2.2828087E1,2.3166218E1,1.2666667E1,8.80845E1,1.0948973E1,2.0303464E2,5.476916E0,2.642364E2,-2.985583E0,2.7278113E2,4.3999996E0,3.6E1,1.1424834E1,2.4142734E2,2.579905E2,1.6591501E1,3.054752E0,5.9333332E1,1.3979871E1,1.5545665E1,1.9296135E1,1.2413476E1,6.987333E0,1.9164719E1,2.0051916E1,2.5666666E1,1.1609651E1,1.7714417E1,1.61915E1,-3.61475E0,3.1550952E2,2.6666666E1,3E-1,1.0498333E0,1.6746773E1,1.4962448E2,2.2384815E1,6.9227505E0,3.2333332E1,1.4493581E1,3.8E1,1.0000001E0,-4.4459996E0,1.4458382E1,5.2333332E1,5.699236E0,3.7442666E-1,1.1304229E1,-1.7255734E0,7.0333336E1,-2.0261028E0,-3.0686278E0,-2.02188E0,-4.0696162E-1,-1.1793077E0,-2.857101E0,7.458763E-1,-5.959378E-1,1.7656475E0,-7.133601E-1,-8.026734E-1,-2.4974935E0,1.079822E0,2.5322292E0,-5.662363E-1,1.1801511E0,6.240444E-1,-1.8849366E0,-3.4423008E0,-1.1072534E0,-3.3031585E0,-4.2091736E-1,-2.564679E0,-4.385459E0,2.795364E0,8.473141E-2,-9.573763E-1,1.843968E0,-1.1096492E0,-2.0326602E0,-2.1295557E0,-3.1966233E0,4.671847E0,8.25965E0,2.732314E0,-1.1259556E0,-1.9135512E0,9.8271054E-1,1.9048032E0,6.483557E0,1.7297107E0,4.2957525E0,-8.1526864E-1,1.8814107E0,1.0469927E0,2.8348267E0,-1.5268126E-1,-2.088615E0,1.7390827E0,6.3951135E0,5.480776E0,8.4176505E-1,-1.3635511E0,1.063968E0,5.141875E0,1.1017071E1,3.5992358E0,9.744267E-1],"split_indices":[0,4,0,0,0,4,0,0,4,3,3,3,3,3,3,0,4,3,4,1,4,1,4,2,0,1,4,4,1,4,0,3,1,3,3,1,3,1,0,3,1,1,1,4,0,2,1,3,4,4,1,0,1,0,2,1,3,0,0,0,3,0,0,0,0,0,0,0,0,0,0,0,0,0,0,0,0,0,0,0,0,0,0,0,0,0,0,0,0,0,0,0,0,0,0,0,0,0,0,0,0,0,0,0,0,0,0,0,0,0,0,0,0,0,0,0,0,0,0,0,0],"split_type":[0,0,0,0,0,0,0,0,0,0,0,0,0,0,0,0,0,0,0,0,0,0,0,0,0,0,0,0,0,0,0,0,0,0,0,0,0,0,0,0,0,0,0,0,0,0,0,0,0,0,0,0,0,0,0,0,0,0,0,0,0,0,0,0,0,0,0,0,0,0,0,0,0,0,0,0,0,0,0,0,0,0,0,0,0,0,0,0,0,0,0,0,0,0,0,0,0,0,0,0,0,0,0,0,0,0,0,0,0,0,0,0,0,0,0,0,0,0,0,0,0],"sum_hessian":[2.485E3,1.721E3,7.64E2,8.14E2,9.07E2,5.46E2,2.18E2,4.51E2,3.63E2,2.99E2,6.08E2,2.21E2,3.25E2,1.75E2,4.3E1,1.52E2,2.99E2,5.5E1,3.08E2,9.5E1,2.04E2,8.3E1,5.25E2,1.49E2,7.2E1,8.4E1,2.41E2,1.53E2,2.2E1,3.9E1,4E0,8.4E1,6.8E1,7.8E1,2.21E2,1.1E1,4.4E1,2.43E2,6.5E1,3.8E1,5.7E1,7.7E1,1.27E2,1.9E1,6.4E1,2.77E2,2.48E2,1.36E2,1.3E1,4.4E1,2.8E1,5.9E1,2.5E1,1.1E2,1.31E2,1.23E2,3E1,2E1,2E0,1E0,3.8E1,1E0,3E0,2.5E1,5.9E1,5.2E1,1.6E1,5.4E1,2.4E1,4.9E1,1.72E2,8E0,3E0,3.1E1,1.3E1,2.17E2,2.6E1,4.2E1,2.3E1,5E0,3.3E1,5E1,7E0,7.3E1,4E0,1E1,1.17E2,1.3E1,6E0,5.5E1,9E0,1.4E2,1.37E2,9.4E1,1.54E2,1.23E2,1.3E1,8E0,5E0,1.1E1,3.3E1,1.6E1,1.2E1,1.2E1,4.7E1,6E0,1.9E1,7.9E1,3.1E1,9.6E1,3.5E1,4E0,1.19E2,1E1,2E1,1.1E1,9E0,6E0,3.2E1,2E0,1E0],"tree_param":{"num_deleted":"0","num_feature":"5","num_nodes":"121","size_leaf_vector":"1"}},{"base_weights":[1.582774E-2,-3.351146E0,7.5947986E0,-1.1850288E0,-6.0466566E0,6.243752E0,1.994118E1,-4.3542414E0,3.2804477E-1,-3.2258844E0,-7.4206543E0,8.603816E0,1.1856798E0,2.3542511E1,6.269432E0,-6.509568E0,-3.2918382E0,-2.749407E0,9.1469973E-1,3.0435376E0,-4.115054E0,-8.166395E0,-4.0377336E0,4.913254E0,1.1737433E1,7.055351E0,-9.461991E-1,7.4112453E0,2.4580944E1,2.7515044E0,1.701482E1,-8.251842E0,-5.3733816E0,-2.299379E0,-6.028917E0,-1.550771E0,-6.110304E0,2.1846561E0,-1.2188288E0,8.441794E0,-1.8611081E-1,-9.124216E0,-3.1287177E0,-1.0145327E1,-7.277043E0,-2.08529E0,-5.9873505E0,7.42465E0,9.722195E-1,2.3001902E0,1.2667114E1,7.799038E0,-2.5362809E0,-3.7147818E0,1.2851497E0,8.733619E0,3.182628E-1,1.9511965E1,2.9114996E1,-1.8614208E0,9.212308E0,-8.28134E-1,7.3580174E0,-1.470054E0,-2.7369123E0,-1.6926725E0,1.734721E0,-1.3806616E0,-3.8559666E-1,-2.1690571E0,-5.983377E-1,-1.1232337E0,5.6861854E-1,-9.5203966E-1,-2.0394852E0,1.6459495E-1,1.0289747E0,1.6673698E-1,-8.791611E-1,-1.5448781E0,3.043656E0,-7.4112743E-1,3.041949E0,-7.467518E-2,-2.8916914E0,-1.0073916E0,3.615457E0,-3.1274033E0,-1.7419579E0,-1.6881061E0,-2.4109397E0,-2.4562423E0,-3.617343E-1,2.7675477E-1,-2.1658921E0,2.399102E0,2.960945E-1,6.251256E-1,-1.3283851E0,1.2962978E0,-2.6652207E0,4.5336137E0,2.662998E0,1.6909722E0,4.1188073E0,5.2021295E-1,-1.7883534E0,-6.8830264E-1,-2.716258E0,9.8439455E-1,-8.0527365E-1,6.1515975E-1,3.0833411E0,3.586506E0,6.694452E0,1.06295805E1,6.509795E0,1.1864419E0,-1.2264516E0,3.6376052E0,1.417335E0],"categories":[],"categories_nodes":[],"categories_segments":[],"categories_sizes":[],"default_left":[0,0,0,0,0,0,0,0,0,0,0,0,0,0,0,0,0,0,0,0,0,0,0,0,0,0,0,0,0,0,0,0,0,0,0,0,0,0,0,0,0,0,0,0,0,0,0,0,0,0,0,0,0,0,0,0,0,0,0,0,0,0,0,0,0,0,0,0,0,0,0,0,0,0,0,0,0,0,0,0,0,0,0,0,0,0,0,0,0,0,0,0,0,0,0,0,0,0,0,0,0,0,0,0,0,0,0,0,0,0,0,0,0,0,0,0,0,0,0,0,0],"id":1,"left_children":[1,3,5,7,9,11,13,15,17,19,21,23,25,27,29,31,33,35,37,39,41,43,45,47,49,51,53,55,57,59,61,63,65,67,69,71,73,75,77,79,81,83,85,87,89,91,93,95,97,99,101,103,105,107,109,111,-1,113,115,117,119,-1,-1,-1,-1,-1,-1,-1,-1,-1,-1,-1,-1,-1,-1,-1,-1,-1,-1,-1,-1,-1,-1,-1,-1,-1,-1,-1,-1,-1,-1,-1,-1,-1,-1,-1,-1,-1,-1,-1,-1,-1,-1,-1,-1,-1,-1,-1,-1,-1,-1,-1,-1,-1,-1,-1,-1,-1,-1,-1,-1],"loss_changes":[6.346369E4,1.0047232E4,1.2636102E4,4.585689E3,2.94875E3,8.238527E3,3.5451367E3,6.861279E2,1.1724156E3,1.4228928E3,1.2662598E3,5.3893594E3,2.772143E3,8.061504E2,5.95809E2,1.5559375E2,5.538728E2,4.0948755E2,1.479334E3,5.594741E2,1.0682925E3,6.671172E2,3.491338E2,2.150436E3,2.1993594E3,4.4063794E2,1.01173474E3,3.2722504E1,6.9597266E2,4.3439285E2,6.619043E2,6.625415E1,2.2458386E2,3.5604022E2,2.5213647E2,5.9666876E2,3.2978943E1,6.948584E2,6.213052E2,3.3011713E2,5.203912E2,1.6207031E2,6.9125354E2,9.461035E1,3.231797E2,2.5310704E2,4.0686316E2,4.8216406E2,5.254386E2,5.8081616E2,2.006625E3,6.2793896E2,8.3464035E1,5.328814E2,7.2985266E2,2.0204742E1,0E0,3.4748047E2,4.9594922E2,1.3272955E2,2.1154266E1,0E0,0E0,0E0,0E0,0E0,0E0,0E0,0E0,0E0,0E0,0E0,0E0,0E0,0E0,0E0,0E0,0E0,0E0,0E0,0E0,0E0,0E0,0E0,0E0,0E0,0E0,0E0,0E0,0E0,0E0,0E0,0E0,0E0,0E0,0E0,0E0,0E0,0E0,0E0,0E0,0E0,0E0,0E0,0E0,0E0,0E0,0E0,0E0,0E0,0E0,0E0,0E0,0E0,0E0,0E0,0E0,0E0,0E0,0E0,0E0],"parents":[2147483647,0,0,1,1,2,2,3,3,4,4,5,5,6,6,7,7,8,8,9,9,10,10,11,11,12,12,13,13,14,14,15,15,16,16,17,17,18,18,19,19,20,20,21,21,22,22,23,23,24,24,25,25,26,26,27,27,28,28,29,29,30,30,31,31,32,32,33,33,34,34,35,35,36,36,37,37,38,38,39,39,40,40,41,41,42,42,43,43,44,44,45,45,46,46,47,47,48,48,49,49,50,50,51,51,52,52,53,53,54,54,55,55,57,57,58,58,59,59,60,60],"right_children":[2,4,6,8,10,12,14,16,18,20,22,24,26,28,30,32,34,36,38,40,42,44,46,48,50,52,54,56,58,60,62,64,66,68,70,72,74,76,78,80,82,84,86,88,90,92,94,96,98,100,102,104,106,108,110,112,-1,114,116,118,120,-1,-1,-1,-1,-1,-1,-1,-1,-1,-1,-1,-1,-1,-1,-1,-1,-1,-1,-1,-1,-1,-1,-1,-1,-1,-1,-1,-1,-1,-1,-1,-1,-1,-1,-1,-1,-1,-1,-1,-1,-1,-1,-1,-1,-1,-1,-1,-1,-1,-1,-1,-1,-1,-1,-1,-1,-1,-1,-1,-1],"split_conditions":[2.9E1,2.3909608E2,5.4333332E1,1.7E1,1.5856356E1,2.4142734E2,2.196E1,1.2666667E1,5.4582912E1,1.1165805E1,2.3666666E1,3.6E1,1.3830749E1,4.433002E1,4.6E0,7.457012E1,2.047922E2,1.9164719E1,2.0303464E2,-2.6043336E0,1.2E1,1.3333333E1,2.7798264E2,1.7727943E1,4.677143E1,5E1,3.5666668E1,1.2753998E1,7.729E0,5.9333332E1,2.226477E1,9.248333E-1,1.4399999E1,1E-1,2.3238524E2,2.4E1,-2.0084999E0,2.1666666E1,6E-1,2.4658723E2,1.9054E1,-3.2585E0,1.584E1,3.4582956E2,2.6180783E2,6.3733345E-1,-2.3793333E0,5.5E0,3.4E1,4.2855545E1,1.7235863E2,4.2E1,6.1894164E0,1.0000001E0,3.0025632E2,5.7E1,3.182628E-1,1.2381581E2,1.3715207E2,1E-1,6.7333336E1,-8.28134E-1,7.3580174E0,-1.470054E0,-2.7369123E0,-1.6926725E0,1.734721E0,-1.3806616E0,-3.8559666E-1,-2.1690571E0,-5.983377E-1,-1.1232337E0,5.6861854E-1,-9.5203966E-1,-2.0394852E0,1.6459495E-1,1.0289747E0,1.6673698E-1,-8.791611E-1,-1.5448781E0,3.043656E0,-7.4112743E-1,3.041949E0,-7.467518E-2,-2.8916914E0,-1.0073916E0,3.615457E0,-3.1274033E0,-1.7419579E0,-1.6881061E0,-2.4109397E0,-2.4562423E0,-3.617343E-1,2.7675477E-1,-2.1658921E0,2.399102E0,2.960945E-1,6.251256E-1,-1.3283851E0,1.2962978E0,-2.6652207E0,4.5336137E0,2.662998E0,1.6909722E0,4.1188073E0,5.2021295E-1,-1.7883534E0,-6.8830264E-1,-2.716258E0,9.8439455E-1,-8.0527365E-1,6.1515975E-1,3.0833411E0,3.586506E0,6.694452E0,1.06295805E1,6.509795E0,1.1864419E0,-1.2264516E0,3.6376052E0,1.417335E0],"split_indices":[0,4,0,0,3,4,3,0,4,3,0,0,3,4,2,4,4,3,4,1,0,0,4,3,4,0,0,1,1,0,3,1,2,2,4,0,1,0,2,4,1,1,3,4,4,1,1,2,0,4,4,0,1,2,4,0,0,4,4,2,0,0,0,0,0,0,0,0,0,0,0,0,0,0,0,0,0,0,0,0,0,0,0,0,0,0,0,0,0,0,0,0,0,0,0,0,0,0,0,0,0,0,0,0,0,0,0,0,0,0,0,0,0,0,0,0,0,0,0,0,0],"split_type":[0,0,0,0,0,0,0,0,0,0,0,0,0,0,0,0,0,0,0,0,0,0,0,0,0,0,0,0,0,0,0,0,0,0,0,0,0,0,0,0,0,0,0,0,0,0,0,0,0,0,0,0,0,0,0,0,0,0,0,0,0,0,0,0,0,0,0,0,0,0,0,0,0,0,0,0,0,0,0,0,0,0,0,0,0,0,0,0,0,0,0,0,0,0,0,0,0,0,0,0,0,0,0,0,0,0,0,0,0,0,0,0,0,0,0,0,0,0,0,0,0],"sum_hessian":[2.485E3,1.721E3,7.64E2,9.55E2,7.66E2,6.9E2,7.4E1,3.08E2,6.47E2,2.52E2,5.14E2,4.7E2,2.2E2,5.8E1,1.6E1,1E2,2.08E2,1.03E2,5.44E2,3.1E1,2.21E2,4.2E2,9.4E1,2.17E2,2.53E2,5.8E1,1.62E2,4E0,5.4E1,1.3E1,3E0,3.7E1,6.3E1,1.54E2,5.4E1,7.7E1,2.6E1,3.41E2,2.03E2,1.1E1,2E1,3.5E1,1.86E2,1.27E2,2.93E2,4.8E1,4.6E1,1.32E2,8.5E1,2.3E1,2.3E2,5.4E1,4E0,7.2E1,9E1,3E0,1E0,2.8E1,2.6E1,8E0,5E0,1E0,2E0,9E0,2.8E1,6.2E1,1E0,4.6E1,1.08E2,4.1E1,1.3E1,4.7E1,3E1,6E0,2E1,1.48E2,1.93E2,1E2,1.03E2,1E0,1E1,1.7E1,3E0,2E0,3.3E1,1.84E2,2E0,1.18E2,9E0,9.5E1,1.98E2,5E0,4.3E1,7E0,3.9E1,1.21E2,1.1E1,7.1E1,1.4E1,2E1,3E0,1.38E2,9.2E1,4.1E1,1.3E1,2E0,2E0,5.8E1,1.4E1,6E1,3E1,1E0,2E0,9E0,1.9E1,1.2E1,1.4E1,2E0,6E0,2E0,3E0],"tree_param":{"num_deleted":"0","num_feature":"5","num_nodes":"121","size_leaf_vector":"1"}},{"base_weights":[2.3195378E-2,-2.2433999E0,5.7072334E0,-3.7333636E0,-1.8197261E-1,4.6559606E0,1.4531918E1,-2.2921E0,-5.280213E0,1.0740243E0,-2.2333832E0,7.717265E0,2.3994293E0,1.7012589E1,5.067709E0,-3.9964156E0,-1.3292364E0,-3.4094036E0,-6.071423E0,6.375347E0,8.5814553E-1,2.9131072E0,-3.3188775E0,-2.3238554E0,8.71037E0,5.944161E0,1.0678151E0,1.4883623E1,2.3400959E1,5.9760875E-1,1.0021871E1,-6.19018E0,-3.6023083E0,3.5695902E-1,-2.9037611E0,-1.6502953E0,-5.506412E0,-6.3416586E0,-1.778771E0,2.3428476E0,1.4049871E1,6.0689247E-1,5.463555E0,7.988386E-1,9.54172E0,-2.3507514E0,-5.200864E0,9.4738054E-1,-8.244651E0,1.0208785E1,4.659956E0,-1.2650506E0,7.1324635E0,1.987657E0,-3.4146316E0,1.6880564E1,6.8135824E0,1.01517E0,7.436117E0,-2.4406114E0,5.765092E0,5.579125E0,6.168164E0,-6.010331E-1,-2.3294106E0,-7.1200955E-1,-1.4236491E0,1.7225266E0,-2.3071672E-1,-1.1634748E0,1.0532393E0,1.534557E0,-7.0222116E-1,-4.9227652E-1,-1.8916289E0,-2.650322E0,-1.8066739E0,-7.0499873E-1,1.5325416E0,-1.0900047E0,2.9761906E0,5.7463923E0,7.680662E-1,-3.846355E-1,3.4859705E-1,-3.519954E-1,2.3624997E0,3.5425022E0,-2.3903137E-1,3.6669238E0,-7.730138E-1,-3.119192E-1,-1.4496443E0,-8.124531E-1,-2.2335317E0,1.6786468E0,-4.3668666E-1,-4.8230955E-1,-2.6619923E0,3.155127E0,-7.686015E-1,9.745415E-1,3.7565153E0,4.264418E-1,-1.6595243E0,2.9441025E0,1.1411186E0,9.447036E-1,-8.425544E-1,-2.5354927E0,-1.3395151E-1,6.094403E0,3.6381235E0,-1.2526941E0,4.1068993E0,9.4915354E-1,-1.5945491E0,2.661457E0,5.317322E-1,2.187332E0,-7.039141E-1],"categories":[],"categories_nodes":[],"categories_segments":[],"categories_sizes":[],"default_left":[0,0,0,0,0,0,0,0,0,0,0,0,0,0,0,0,0,0,0,0,0,0,0,0,0,0,0,0,0,0,0,0,0,0,0,0,0,0,0,0,0,0,0,0,0,0,0,0,0,0,0,0,0,0,0,0,0,0,0,0,0,0,0,0,0,0,0,0,0,0,0,0,0,0,0,0,0,0,0,0,0,0,0,0,0,0,0,0,0,0,0,0,0,0,0,0,0,0,0,0,0,0,0,0,0,0,0,0,0,0,0,0,0,0,0,0,0,0,0,0,0],"id":2,"left_children":[1,3,5,7,9,11,13,15,17,19,21,23,25,27,29,31,33,35,37,39,41,43,45,47,49,51,53,55,57,59,61,63,65,67,69,71,73,75,77,79,81,83,85,87,89,91,93,95,97,99,101,103,105,107,109,111,113,-1,-1,115,117,119,-1,-1,-1,-1,-1,-1,-1,-1,-1,-1,-1,-1,-1,-1,-1,-1,-1,-1,-1,-1,-1,-1,-1,-1,-1,-1,-1,-1,-1,-1,-1,-1,-1,-1,-1,-1,-1,-1,-1,-1,-1,-1,-1,-1,-1,-1,-1,-1,-1,-1,-1,-1,-1,-1,-1,-1,-1,-1,-1],"loss_changes":[3.204097E4,5.4603633E3,6.509842E3,2.2886543E3,1.9270931E3,4.3680166E3,1.6746045E3,8.742766E2,7.149619E2,5.255507E2,1.5962299E3,2.7026797E3,1.7259714E3,4.5414453E2,3.70486E2,1.4456445E2,9.1434143E2,5.442423E2,3.9240918E2,5.241386E2,5.1391833E2,6.931111E2,4.159441E2,4.920187E2,1.4393828E3,8.6569556E2,1.1117892E3,6.424072E2,2.7681592E2,1.7106987E2,2.598554E2,1.6902283E2,2.2195312E2,1.01699677E3,1.1262781E3,3.996808E2,1.9967773E2,2.071582E2,9.855646E1,6.247677E2,3.0287195E2,4.4713873E2,3.7734216E2,6.945164E2,4.214215E2,5.0572235E2,4.2177856E2,1.9802501E2,2.3285706E1,7.2778516E2,7.139026E2,1.7980193E2,7.302246E2,1.250967E3,6.8394855E2,3.5762988E2,8.8835425E2,0E0,0E0,1.2958846E2,3.388733E1,1.1208586E2,0E0,0E0,0E0,0E0,0E0,0E0,0E0,0E0,0E0,0E0,0E0,0E0,0E0,0E0,0E0,0E0,0E0,0E0,0E0,0E0,0E0,0E0,0E0,0E0,0E0,0E0,0E0,0E0,0E0,0E0,0E0,0E0,0E0,0E0,0E0,0E0,0E0,0E0,0E0,0E0,0E0,0E0,0E0,0E0,0E0,0E0,0E0,0E0,0E0,0E0,0E0,0E0,0E0,0E0,0E0,0E0,0E0,0E0,0E0],"parents":[2147483647,0,0,1,1,2,2,3,3,4,4,5,5,6,6,7,7,8,8,9,9,10,10,11,11,12,12,13,13,14,14,15,15,16,16,17,17,18,18,19,19,20,20,21,21,22,22,23,23,24,24,25,25,26,26,27,27,28,28,29,29,30,30,31,31,32,32,33,33,34,34,35,35,36,36,37,37,38,38,39,39,40,40,41,41,42,42,43,43,44,44,45,45,46,46,47,47,48,48,49,49,50,50,51,51,52,52,53,53,54,54,55,55,56,56,59,59,60,60,61,61],"right_children":[2,4,6,8,10,12,14,16,18,20,22,24,26,28,30,32,34,36,38,40,42,44,46,48,50,52,54,56,58,60,62,64,66,68,70,72,74,76,78,80,82,84,86,88,90,92,94,96,98,100,102,104,106,108,110,112,114,-1,-1,116,118,120,-1,-1,-1,-1,-1,-1,-1,-1,-1,-1,-1,-1,-1,-1,-1,-1,-1,-1,-1,-1,-1,-1,-1,-1,-1,-1,-1,-1,-1,-1,-1,-1,-1,-1,-1,-1,-1,-1,-1,-1,-1,-1,-1,-1,-1,-1,-1,-1,-1,-1,-1,-1,-1,-1,-1,-1,-1,-1,-1],"split_conditions":[3E1,2.0666666E1,5.4333332E1,2.3981769E2,2.3981769E2,1.8225099E2,2.196E1,1.4666667E1,1.5629971E1,9.449572E0,1.3684735E1,2.509263E1,1.4118243E1,6.7E1,5.9333332E1,4.2855545E1,1.6375053E1,8.379001E0,1.6739416E1,1.5161314E2,2.0939419E1,2.6666666E1,7E-1,7E-1,2.1000001E0,3.2333332E1,3.0229745E2,6.1666668E1,1.0163227E1,9.000001E-1,1.39748335E1,-3.7725005E-1,1.7334746E2,1.6456666E0,1.7295666E1,1.1165805E1,2.532871E2,1E1,4.7999997E0,2.4E1,6.320666E0,7.9730835E1,2.3666666E1,2.1333334E1,1E-1,1.0279E1,1.9296135E1,1.2245293E1,-3.4085E0,2.1461555E1,1.915608E1,3.2E1,2.6644534E2,2.440046E1,3.228236E2,4E-1,6.4333336E1,1.01517E0,7.436117E0,1E-1,3.7275013E-1,1.2000002E0,6.168164E0,-6.010331E-1,-2.3294106E0,-7.1200955E-1,-1.4236491E0,1.7225266E0,-2.3071672E-1,-1.1634748E0,1.0532393E0,1.534557E0,-7.0222116E-1,-4.9227652E-1,-1.8916289E0,-2.650322E0,-1.8066739E0,-7.0499873E-1,1.5325416E0,-1.0900047E0,2.9761906E0,5.7463923E0,7.680662E-1,-3.846355E-1,3.4859705E-1,-3.519954E-1,2.3624997E0,3.5425022E0,-2.3903137E-1,3.6669238E0,-7.730138E-1,-3.119192E-1,-1.4496443E0,-8.124531E-1,-2.2335317E0,1.6786468E0,-4.3668666E-1,-4.8230955E-1,-2.6619923E0,3.155127E0,-7.686015E-1,9.745415E-1,3.7565153E0,4.264418E-1,-1.6595243E0,2.9441025E0,1.1411186E0,9.447036E-1,-8.425544E-1,-2.5354927E0,-1.3395151E-1,6.094403E0,3.6381235E0,-1.2526941E0,4.1068993E0,9.4915354E-1,-1.5945491E0,2.661457E0,5.317322E-1,2.187332E0,-7.039141E-1],"split_indices":[0,0,0,4,4,4,3,0,3,3,3,4,3,0,0,4,3,1,1,4,1,0,2,2,2,0,4,0,3,2,1,1,4,1,1,3,4,0,2,0,1,4,0,0,2,1,3,3,1,3,1,0,4,3,4,2,0,0,0,2,1,2,0,0,0,0,0,0,0,0,0,0,0,0,0,0,0,0,0,0,0,0,0,0,0,0,0,0,0,0,0,0,0,0,0,0,0,0,0,0,0,0,0,0,0,0,0,0,0,0,0,0,0,0,0,0,0,0,0,0,0],"split_type":[0,0,0,0,0,0,0,0,0,0,0,0,0,0,0,0,0,0,0,0,0,0,0,0,0,0,0,0,0,0,0,0,0,0,0,0,0,0,0,0,0,0,0,0,0,0,0,0,0,0,0,0,0,0,0,0,0,0,0,0,0,0,0,0,0,0,0,0,0,0,0,0,0,0,0,0,0,0,0,0,0,0,0,0,0,0,0,0,0,0,0,0,0,0,0,0,0,0,0,0,0,0,0,0,0,0,0,0,0,0,0,0,0,0,0,0,0,0,0,0,0],"sum_hessian":[2.485E3,1.777E3,7.08E2,1.031E3,7.46E2,6.34E2,7.4E1,5.35E2,4.96E2,4.63E2,2.83E2,2.68E2,3.66E2,5.8E1,1.6E1,1.92E2,3.43E2,1.49E2,3.47E2,1.7E1,4.46E2,4.9E1,2.34E2,2.4E1,2.44E2,9.9E1,2.67E2,4.6E1,1.2E1,9E0,7E0,2.7E1,1.65E2,1.66E2,1.77E2,8.2E1,6.7E1,3.26E2,2.1E1,1.2E1,5E0,4.24E2,2.2E1,3.8E1,1.1E1,1.56E2,7.8E1,1.6E1,8E0,1.77E2,6.7E1,1.4E1,8.5E1,2.22E2,4.5E1,3.6E1,1E1,1E0,1.1E1,6E0,3E0,6E0,1E0,8E0,1.9E1,8.1E1,8.4E1,2.8E1,1.38E2,1.54E2,2.3E1,7E0,7.5E1,1.2E1,5.5E1,3.4E1,2.92E2,2E1,1E0,7E0,5E0,3E0,2E0,9.6E1,3.28E2,6E0,1.6E1,4E0,3.4E1,9E0,2E0,1.03E2,5.3E1,3.8E1,4E1,5E0,1.1E1,1E0,7E0,1.73E2,4E0,5.8E1,9E0,9E0,5E0,4.6E1,3.9E1,1.79E2,4.3E1,1.6E1,2.9E1,1.9E1,1.7E1,4E0,6E0,2E0,4E0,1E0,2E0,5E0,1E0],"tree_param":{"num_deleted":"0","num_feature":"5","num_nodes":"121","size_leaf_vector":"1"}},{"base_weights":[3.2180652E-2,-1.1859448E0,5.6217985E0,-2.6219456E0,2.8105685E-1,7.8597455E0,2.9151835E0,-1.4068152E0,-3.5553706E0,1.1529063E0,-1.3332703E0,6.8784094E0,1.4864143E1,1.1356984E1,1.8787286E0,-3.5554805E0,-5.78625E-1,3.3566883E0,-3.6695957E0,-2.4120007E0,1.3940965E0,1.0242572E0,-3.144631E0,3.7910872E0,8.250433E0,1.6151865E1,-1.680055E0,1.7645535E1,6.5031314E0,-1.1413313E0,3.958597E0,-1.0630941E0,-4.673387E0,2.7772745E-1,-2.1735764E0,4.7747107E0,-1.5436014E0,-5.19362E0,-3.1845248E0,-1.069001E0,-5.6804166E0,2.7071345E0,4.4026706E-1,8.783544E0,4.8578376E-1,-2.5240345E0,-7.412668E0,1.9265107E0,4.323894E0,1.0148387E1,5.042325E0,3.2748928E0,1.7625032E1,-1.0435873E0,2.8756258E-1,6.0868444E0,-5.2590525E-1,8.750192E0,7.0838547E-1,9.891028E-1,-3.6043732E0,7.4172263E0,1.464895E0,7.0134497E-1,-1.2754301E0,-1.5349991E0,1.7078843E0,-4.7764527E-3,1.8721181E0,-1.370508E0,-8.939868E-2,-4.507602E-1,1.7658324E0,4.1770365E-2,-7.36391E-1,-1.1738711E-1,-1.6829299E0,-5.59021E-1,-1.1014547E0,-1.3120291E0,2.1383859E-1,-8.338556E-1,-2.0350277E0,5.6163126E-1,2.6364777E0,2.2021557E-1,-2.0492635E0,3.0917227E0,5.389498E-1,-5.0232615E-2,1.3828436E0,-2.653163E-1,-1.4226489E0,-2.6044714E0,1.4359434E0,9.231217E-1,-1.0121566E0,3.424256E0,2.1868258E0,2.855288E0,6.5020597E-1,1.7390484E0,-6.4363694E-1,5.56943E0,-5.983269E-1,-1.5712625E-1,2.9516478E0,1.2123814E0,-8.581887E-1,8.324917E-1,-1.2401161E0,-4.529283E-1,-2.6069784E0,4.688145E0,1.2904357E0,-1.0908995E0,1.2122273E0],"categories":[],"categories_nodes":[],"categories_segments":[],"categories_sizes":[],"default_left":[0,0,0,0,0,0,0,0,0,0,0,0,0,0,0,0,0,0,0,0,0,0,0,0,0,0,0,0,0,0,0,0,0,0,0,0,0,0,0,0,0,0,0,0,0,0,0,0,0,0,0,0,0,0,0,0,0,0,0,0,0,0,0,0,0,0,0,0,0,0,0,0,0,0,0,0,0,0,0,0,0,0,0,0,0,0,0,0,0,0,0,0,0,0,0,0,0,0,0,0,0,0,0,0,0,0,0,0,0,0,0,0,0,0,0,0,0],"id":3,"left_children":[1,3,5,7,9,11,13,15,17,19,21,23,25,27,29,31,33,35,37,39,41,43,45,47,49,51,53,55,57,59,61,63,65,67,69,71,73,75,77,79,81,83,85,87,89,91,93,95,-1,97,99,101,103,-1,-1,-1,-1,105,107,109,111,113,115,-1,-1,-1,-1,-1,-1,-1,-1,-1,-1,-1,-1,-1,-1,-1,-1,-1,-1,-1,-1,-1,-1,-1,-1,-1,-1,-1,-1,-1,-1,-1,-1,-1,-1,-1,-1,-1,-1,-1,-1,-1,-1,-1,-1,-1,-1,-1,-1,-1,-1,-1,-1,-1,-1],"loss_changes":[1.6933484E4,4.3024463E3,2.6725684E3,1.1655264E3,1.4244695E3,1.5680596E3,1.7548212E3,7.987193E2,4.7261426E2,5.682648E2,1.519189E3,8.794365E2,6.449614E2,5.5677026E2,1.1477195E3,3.4331348E2,4.4586774E2,7.6857475E1,4.077959E2,1.7828584E2,7.702953E2,6.4334937E2,5.1368445E2,1.3189956E3,8.4997656E2,4.5446826E2,1.7571505E1,4.9716626E2,1.7609741E2,3.9711624E2,9.2061194E2,4.4366934E2,4.24312E2,3.730476E2,5.106822E2,6.465614E1,4.941139E0,2.715952E2,2.7495654E2,1.8563976E2,1.9541931E1,1.2987295E3,7.6975665E2,8.784247E1,3.9405255E2,6.3954565E2,4.2854236E2,3.70187E2,0E0,2.4973438E2,7.127549E2,6.7115906E1,4.7951562E2,0E0,0E0,0E0,0E0,1.0611243E2,7.103616E1,3.8656738E2,3.5970963E2,1.0838928E3,8.556572E2,0E0,0E0,0E0,0E0,0E0,0E0,0E0,0E0,0E0,0E0,0E0,0E0,0E0,0E0,0E0,0E0,0E0,0E0,0E0,0E0,0E0,0E0,0E0,0E0,0E0,0E0,0E0,0E0,0E0,0E0,0E0,0E0,0E0,0E0,0E0,0E0,0E0,0E0,0E0,0E0,0E0,0E0,0E0,0E0,0E0,0E0,0E0,0E0,0E0,0E0,0E0,0E0,0E0,0E0],"parents":[2147483647,0,0,1,1,2,2,3,3,4,4,5,5,6,6,7,7,8,8,9,9,10,10,11,11,12,12,13,13,14,14,15,15,16,16,17,17,18,18,19,19,20,20,21,21,22,22,23,23,24,24,25,25,26,26,27,27,28,28,29,29,30,30,31,31,32,32,33,33,34,34,35,35,36,36,37,37,38,38,39,39,40,40,41,41,42,42,43,43,44,44,45,45,46,46,47,47,49,49,50,50,51,51,52,52,57,57,58,58,59,59,60,60,61,61,62,62],"right_children":[2,4,6,8,10,12,14,16,18,20,22,24,26,28,30,32,34,36,38,40,42,44,46,48,50,52,54,56,58,60,62,64,66,68,70,72,74,76,78,80,82,84,86,88,90,92,94,96,-1,98,100,102,104,-1,-1,-1,-1,106,108,110,112,114,116,-1,-1,-1,-1,-1,-1,-1,-1,-1,-1,-1,-1,-1,-1,-1,-1,-1,-1,-1,-1,-1,-1,-1,-1,-1,-1,-1,-1,-1,-1,-1,-1,-1,-1,-1,-1,-1,-1,-1,-1,-1,-1,-1,-1,-1,-1,-1,-1,-1,-1,-1,-1,-1,-1],"split_conditions":[3.6E1,2.0666666E1,1.9861992E2,2.2085765E2,2.4378865E2,5.8666668E1,1.191812E1,8.1704216E1,-8.420999E0,2.509263E1,1.6954432E1,8.5686134E1,2.3166218E1,2.5561533E2,4.2666668E1,1.3602501E0,1.8416384E1,3.3234738E2,1.2E1,2.1746504E1,1.621643E2,9.107359E0,3.2333332E1,1.61915E1,1.8E0,1.5374269E1,5.9333332E1,1.753525E1,3.371451E2,2.7004987E2,4.9915E0,9.0000004E-1,1.8206083E1,1.8014393E1,5.2852497E0,1.2E1,1.4E1,-2.6043336E0,1.5629971E1,-1.1522499E0,-2.1335E0,1.5161314E2,9.799999E0,3.3234738E2,3.4182187E2,2.9325446E2,2.7804028E1,5.820667E0,4.323894E0,1.4316499E1,1.4962448E2,1.2753998E1,9.3E0,-1.0435873E0,2.8756258E-1,6.0868444E0,-5.2590525E-1,2.6644534E2,1E-1,4.0666668E1,9.1831665E0,2.3981769E2,4.6666668E1,7.0134497E-1,-1.2754301E0,-1.5349991E0,1.7078843E0,-4.7764527E-3,1.8721181E0,-1.370508E0,-8.939868E-2,-4.507602E-1,1.7658324E0,4.1770365E-2,-7.36391E-1,-1.1738711E-1,-1.6829299E0,-5.59021E-1,-1.1014547E0,-1.3120291E0,2.1383859E-1,-8.338556E-1,-2.0350277E0,5.6163126E-1,2.6364777E0,2.2021557E-1,-2.0492635E0,3.0917227E0,5.389498E-1,-5.0232615E-2,1.3828436E0,-2.653163E-1,-1.4226489E0,-2.6044714E0,1.4359434E0,9.231217E-1,-1.0121566E0,3.424256E0,2.1868258E0,2.855288E0,6.5020597E-1,1.7390484E0,-6.4363694E-1,5.56943E0,-5.983269E-1,-1.5712625E-1,2.9516478E0,1.2123814E0,-8.581887E-1,8.324917E-1,-1.2401161E0,-4.529283E-1,-2.6069784E0,4.688145E0,1.2904357E0,-1.0908995E0,1.2122273E0],"split_indices":[0,0,4,4,4,0,3,4,1,4,3,4,3,4,0,1,3,4,0,3,4,3,0,1,2,4,0,1,4,4,1,2,1,3,1,0,0,1,3,1,1,4,2,4,4,4,3,1,0,1,4,1,2,0,0,0,0,4,2,0,1,4,0,0,0,0,0,0,0,0,0,0,0,0,0,0,0,0,0,0,0,0,0,0,0,0,0,0,0,0,0,0,0,0,0,0,0,0,0,0,0,0,0,0,0,0,0,0,0,0,0,0,0,0,0,0,0],"split_type":[0,0,0,0,0,0,0,0,0,0,0,0,0,0,0,0,0,0,0,0,0,0,0,0,0,0,0,0,0,0,0,0,0,0,0,0,0,0,0,0,0,0,0,0,0,0,0,0,0,0,0,0,0,0,0,0,0,0,0,0,0,0,0,0,0,0,0,0,0,0,0,0,0,0,0,0,0,0,0,0,0,0,0,0,0,0,0,0,0,0,0,0,0,0,0,0,0,0,0,0,0,0,0,0,0,0,0,0,0,0,0,0,0,0,0,0,0],"sum_hessian":[2.485E3,2.041E3,4.44E2,1.031E3,1.01E3,2.42E2,2.02E2,4.49E2,5.82E2,6.56E2,3.54E2,2.14E2,2.8E1,2.1E1,1.81E2,1.24E2,3.25E2,9E0,5.73E2,4.1E1,6.15E2,1.54E2,2E2,6.7E1,1.47E2,2.6E1,2E0,8E0,1.3E1,7.4E1,1.07E2,3.9E1,8.5E1,2.12E2,1.13E2,7E0,2E0,1.36E2,4.37E2,3E1,1.1E1,2.58E2,3.57E2,9E0,1.45E2,1.76E2,2.4E1,5.8E1,9E0,9.1E1,5.6E1,3E0,2.3E1,1E0,1E0,7E0,1E0,9E0,4E0,4E1,3.4E1,4.4E1,6.3E1,1.9E1,2E1,8.2E1,3E0,2.03E2,9E0,4.9E1,6.4E1,1E0,6E0,1E0,1E0,1.1E1,1.25E2,1.19E2,3.18E2,1E1,2E1,4E0,7E0,2.28E2,3E1,3.44E2,1.3E1,7E0,2E0,1.26E2,1.9E1,1.02E2,7.4E1,2.2E1,2E0,4.8E1,1E1,6.1E1,3E1,2.1E1,3.5E1,2E0,1E0,2.2E1,1E0,1E0,8E0,2E0,2E0,3E1,1E1,2.5E1,9E0,1.1E1,3.3E1,2.1E1,4.2E1],"tree_param":{"num_deleted":"0","num_feature":"5","num_nodes":"117","size_leaf_vector":"1"}},{"base_weights":[3.3258006E-2,-1.1650978E0,3.0383968E0,-2.64057E0,-6.174344E-1,2.4642103E0,7.859331E0,-2.0518057E0,-3.6050863E0,2.9424098E0,-9.2996883E-1,3.0193093E0,-1.316144E0,8.885278E0,1.0824368E0,-3.0681052E0,-1.5754759E0,-2.5527155E0,-4.763614E0,2.0783238E0,1.0943393E1,-1.0377375E0,6.168566E0,2.023759E0,4.6157923E0,-3.5360694E0,2.6495957E0,7.6192255E0,1.5916353E1,-8.230417E-1,4.6227846E0,-2.49828E0,-5.5356393E0,-1.9497286E0,1.8321774E0,-2.790319E0,1.5159897E0,-5.08483E0,-4.5795006E-1,1.6588439E0,3.3934958E0,6.3539553E0,5.860229E0,-4.3030587E-1,-2.1234734E0,2.851927E0,1.0973009E1,2.2252393E0,-2.8990808E0,8.993242E0,3.7291265E0,-9.756463E-1,-7.711985E0,9.379349E0,-1.7402271E0,7.9152656E0,-1.3438525E0,6.435835E0,7.1966553E0,5.610924E-1,-9.9508876E-1,2.378967E0,2.6313594E-1,-6.5724075E-1,-1.6043814E0,-1.9039302E0,1.09063156E-1,-2.8117603E-1,-8.578973E-1,1.8967425E0,-6.187255E-1,-3.371093E-1,-1.1110353E0,7.619652E-1,-5.405222E-1,-1.7605882E0,-1.225415E0,-6.286722E-1,3.882484E-1,8.676713E-1,-6.073285E-2,3.3856356E-1,2.3723004E0,-5.9883666E-1,1.8743163E-2,-7.329807E-1,7.52369E-2,2.2886825E0,1.23578645E-1,3.8390584E0,1.2826763E0,8.9964134E-1,-1.3073698E-1,3.1492803E0,-8.227539E-3,7.690765E-1,1.9984899E0,-1.0899105E0,1.4732963E0,-2.4974449E0,5.8977073E-1,5.436329E0,8.230014E-1,2.4365864E0,-1.2291025E0,2.6435192E0,8.731061E-1,4.149485E-1,2.4912715E0,-3.1225246E-1,4.866809E-1],"categories":[],"categories_nodes":[],"categories_segments":[],"categories_sizes":[],"default_left":[0,0,0,0,0,0,0,0,0,0,0,0,0,0,0,0,0,0,0,0,0,0,0,0,0,0,0,0,0,0,0,0,0,0,0,0,0,0,0,0,0,0,0,0,0,0,0,0,0,0,0,0,0,0,0,0,0,0,0,0,0,0,0,0,0,0,0,0,0,0,0,0,0,0,0,0,0,0,0,0,0,0,0,0,0,0,0,0,0,0,0,0,0,0,0,0,0,0,0,0,0,0,0,0,0,0,0,0,0,0,0],"id":4,"left_children":[1,3,5,7,9,11,13,15,17,19,21,23,25,27,29,31,33,35,37,39,41,43,45,47,49,51,53,55,57,59,61,63,65,67,69,71,73,75,77,79,-1,81,-1,83,85,87,89,91,-1,93,95,97,99,101,103,105,-1,-1,107,109,-1,-1,-1,-1,-1,-1,-1,-1,-1,-1,-1,-1,-1,-1,-1,-1,-1,-1,-1,-1,-1,-1,-1,-1,-1,-1,-1,-1,-1,-1,-1,-1,-1,-1,-1,-1,-1,-1,-1,-1,-1,-1,-1,-1,-1,-1,-1,-1,-1,-1,-1],"loss_changes":[8.956187E3,1.435104E3,1.943227E3,2.6574976E2,1.4468574E3,1.3365029E3,5.118369E2,1.4087854E2,2.0851514E2,7.031773E2,9.1981055E2,8.711753E2,7.312681E2,4.5734033E2,7.801137E1,1.197464E2,2.6756415E2,9.800372E1,1.1523047E2,3.5306262E2,2.7014612E2,7.7532983E2,2.5552869E2,8.2919165E2,7.8930615E2,5.5915784E2,9.0259485E2,2.3961426E2,2.8009546E2,2.9476486E1,4.2593773E1,5.750406E1,8.361859E1,1.6959918E2,3.802853E2,1.358482E2,2.4958237E1,3.7955444E1,2.2797106E1,2.1408554E2,0E0,5.6026093E1,0E0,5.834602E2,3.2102844E2,1.367283E2,3.0791565E1,6.9707263E2,0E0,4.7524902E2,5.913169E2,5.497062E2,1.3498389E2,6.4641187E2,4.7489276E2,2.2561182E2,0E0,0E0,2.0708527E1,1.188814E1,0E0,0E0,0E0,0E0,0E0,0E0,0E0,0E0,0E0,0E0,0E0,0E0,0E0,0E0,0E0,0E0,0E0,0E0,0E0,0E0,0E0,0E0,0E0,0E0,0E0,0E0,0E0,0E0,0E0,0E0,0E0,0E0,0E0,0E0,0E0,0E0,0E0,0E0,0E0,0E0,0E0,0E0,0E0,0E0,0E0,0E0,0E0,0E0,0E0,0E0,0E0],"parents":[2147483647,0,0,1,1,2,2,3,3,4,4,5,5,6,6,7,7,8,8,9,9,10,10,11,11,12,12,13,13,14,14,15,15,16,16,17,17,18,18,19,19,20,20,21,21,22,22,23,23,24,24,25,25,26,26,27,27,28,28,29,29,30,30,31,31,32,32,33,33,34,34,35,35,36,36,37,37,38,38,39,39,41,41,43,43,44,44,45,45,46,46,47,47,49,49,50,50,51,51,52,52,53,53,54,54,55,55,58,58,59,59],"right_children":[2,4,6,8,10,12,14,16,18,20,22,24,26,28,30,32,34,36,38,40,42,44,46,48,50,52,54,56,58,60,62,64,66,68,70,72,74,76,78,80,-1,82,-1,84,86,88,90,92,-1,94,96,98,100,102,104,106,-1,-1,108,110,-1,-1,-1,-1,-1,-1,-1,-1,-1,-1,-1,-1,-1,-1,-1,-1,-1,-1,-1,-1,-1,-1,-1,-1,-1,-1,-1,-1,-1,-1,-1,-1,-1,-1,-1,-1,-1,-1,-1,-1,-1,-1,-1,-1,-1,-1,-1,-1,-1,-1,-1],"split_conditions":[3E1,1.5E1,5.4333332E1,2.6936902E2,1.1212135E1,2.3263912E1,2.3166218E1,1.1666667E1,1.8E1,4.5E0,2.2072748E1,4.1333332E1,2.8512817E1,1.3572749E1,5.9333332E1,1.59852495E1,1.7797752E1,1.6078999E1,3.480978E2,2.8666666E1,1.0630672E1,2.4986226E2,1.9223994E2,4.1E1,1.2181625E1,2.5241108E1,2.9793125E1,2.2828087E1,1.4718583E1,5.7E1,6.7333336E1,1.16E1,1.0000001E0,6.439417E0,1.8897749E1,2.1269166E0,3.4310852E2,3.1237143E2,1.1666667E1,9.81025E0,3.3934958E0,1.8666666E1,5.860229E0,1.0343822E2,3.3826105E2,6.2949455E1,2.0881583E2,2.6936902E2,-2.8990808E0,1.8360249E1,1.3466499E1,3.3999999E0,1.4408165E1,3.1666666E1,2E-1,1.2635251E1,-1.3438525E0,6.435835E0,1.5315873E1,2.6925497E1,-9.9508876E-1,2.378967E0,2.6313594E-1,-6.5724075E-1,-1.6043814E0,-1.9039302E0,1.09063156E-1,-2.8117603E-1,-8.578973E-1,1.8967425E0,-6.187255E-1,-3.371093E-1,-1.1110353E0,7.619652E-1,-5.405222E-1,-1.7605882E0,-1.225415E0,-6.286722E-1,3.882484E-1,8.676713E-1,-6.073285E-2,3.3856356E-1,2.3723004E0,-5.9883666E-1,1.8743163E-2,-7.329807E-1,7.52369E-2,2.2886825E0,1.23578645E-1,3.8390584E0,1.2826763E0,8.9964134E-1,-1.3073698E-1,3.1492803E0,-8.227539E-3,7.690765E-1,1.9984899E0,-1.0899105E0,1.4732963E0,-2.4974449E0,5.8977073E-1,5.436329E0,8.230014E-1,2.4365864E0,-1.2291025E0,2.6435192E0,8.731061E-1,4.149485E-1,2.4912715E0,-3.1225246E-1,4.866809E-1],"split_indices":[0,0,0,4,3,3,3,0,3,2,1,0,3,1,0,1,1,1,4,0,3,4,4,0,3,3,3,3,1,0,0,2,2,1,1,1,4,4,0,1,0,0,0,4,4,4,4,4,0,1,1,2,1,0,2,1,0,0,3,3,0,0,0,0,0,0,0,0,0,0,0,0,0,0,0,0,0,0,0,0,0,0,0,0,0,0,0,0,0,0,0,0,0,0,0,0,0,0,0,0,0,0,0,0,0,0,0,0,0,0,0],"split_type":[0,0,0,0,0,0,0,0,0,0,0,0,0,0,0,0,0,0,0,0,0,0,0,0,0,0,0,0,0,0,0,0,0,0,0,0,0,0,0,0,0,0,0,0,0,0,0,0,0,0,0,0,0,0,0,0,0,0,0,0,0,0,0,0,0,0,0,0,0,0,0,0,0,0,0,0,0,0,0,0,0,0,0,0,0,0,0,0,0,0,0,0,0,0,0,0,0,0,0,0,0,0,0,0,0,0,0,0,0,0,0],"sum_hessian":[2.485E3,1.777E3,7.08E2,4.8E2,1.297E3,6.34E2,7.4E1,3E2,1.8E2,1.04E2,1.193E3,5.53E2,8.1E1,6.4E1,1E1,9.4E1,2.06E2,9.6E1,8.4E1,9.5E1,9E0,1.176E3,1.7E1,3.42E2,2.11E2,5.2E1,2.9E1,5.6E1,8E0,7E0,3E0,7.8E1,1.6E1,1.86E2,2E1,9.1E1,5E0,7.8E1,6E0,9.2E1,3E0,7E0,2E0,7.55E2,4.21E2,1.1E1,6E0,3.37E2,5E0,3.4E1,1.77E2,3.3E1,1.9E1,1.1E1,1.8E1,5.5E1,1E0,4E0,4E0,5E0,2E0,1E0,2E0,7.2E1,6E0,1.4E1,2E0,8.9E1,9.7E1,9E0,1.1E1,3.3E1,5.8E1,4E0,1E0,4.1E1,3.7E1,3E0,3E0,5.5E1,3.7E1,2E0,5E0,1.8E2,5.75E2,3.71E2,5E1,3E0,8E0,4E0,2E0,2.61E2,7.6E1,2.9E1,5E0,1.28E2,4.9E1,2.3E1,1E1,1.8E1,1E0,4E0,7E0,3E0,1.5E1,4.6E1,9E0,1E0,3E0,2E0,3E0],"tree_param":{"num_deleted":"0","num_feature":"5","num_nodes":"111","size_leaf_vector":"1"}},{"base_weights":[3.6858097E-2,-8.6025393E-1,2.0561914E0,4.4571955E-2,-1.5601188E0,1.2248691E0,3.8806713E0,-1.2962226E0,6.1584884E-1,-7.543986E-2,-1.8143395E0,7.6232285E0,9.9664295E-1,4.3339553E0,-2.2936203E0,-1.0416006E0,-6.155087E0,-1.1375495E0,1.0589715E0,1.9913296E0,-1.5934819E0,-2.0044248E0,9.5085675E-1,4.0367017E0,4.9956965E0,2.1294465E0,1.0903097E-1,3.7715223E0,8.637564E0,-5.821928E0,1.4895339E0,3.4706724E-1,-2.2077246E0,-2.2361648E0,-2.0700645E-1,5.986488E-1,-2.2686107E0,-2.02189E0,1.1686422E0,8.666412E0,1.4966457E0,-2.1639799E-1,-2.6436653E0,-1.4867052E0,-2.8813524E0,-2.6834738E-1,7.994824E0,-1.6721478E0,6.9662127E0,3.06928E0,-6.779478E-1,2.2920818E0,-9.1622263E-1,4.02712E0,-9.695665E0,-2.0518675E0,1.018848E1,-2.513207E0,-3.1479876E0,1.976734E0,2.844739E-2,-1.1984154E0,3.3275443E-1,-7.777722E-1,1.2630818E0,2.296629E-2,-1.161192E-1,-8.775663E-2,3.7735302E0,-8.296449E-1,3.3909458E-1,6.650733E-1,1.5420707E-1,3.481858E0,-2.2939397E-2,2.8997582E-1,1.5661278E0,-1.2452242E0,6.2629676E-1,-1.2491704E-1,-1.2035263E0,-1.3002779E-1,-7.588979E-1,-9.2866844E-1,1.008536E0,-2.9282263E-1,1.761535E0,5.79151E-1,2.908354E0,-1.8393958E0,5.574047E-1,1.0410544E0,3.1402247E0,-2.486744E-2,1.3216945E0,-9.900954E-1,7.7269787E-1,-1.25018E0,1.2091104E0,-2.4145799E0,-1.3458884E-1,2.0455954E0,9.664551E-1,-7.6014864E-1,-3.3715005E0,-6.3325884E-3,-8.1652534E-1,3.2630029E0,-6.3954395E-1,-1.5373131E0,-2.6360965E-1,3.5832712E-1,-2.7300695E-1],"categories":[],"categories_nodes":[],"categories_segments":[],"categories_sizes":[],"default_left":[0,0,0,0,0,0,0,0,0,0,0,0,0,0,0,0,0,0,0,0,0,0,0,0,0,0,0,0,0,0,0,0,0,0,0,0,0,0,0,0,0,0,0,0,0,0,0,0,0,0,0,0,0,0,0,0,0,0,0,0,0,0,0,0,0,0,0,0,0,0,0,0,0,0,0,0,0,0,0,0,0,0,0,0,0,0,0,0,0,0,0,0,0,0,0,0,0,0,0,0,0,0,0,0,0,0,0,0,0,0,0,0,0],"id":5,"left_children":[1,3,5,7,9,11,13,15,17,19,21,23,25,27,29,31,33,35,37,39,41,43,45,-1,47,49,51,53,55,57,59,61,63,-1,65,67,69,-1,71,73,75,77,79,81,83,85,87,89,91,93,95,97,99,101,103,105,107,-1,109,-1,111,-1,-1,-1,-1,-1,-1,-1,-1,-1,-1,-1,-1,-1,-1,-1,-1,-1,-1,-1,-1,-1,-1,-1,-1,-1,-1,-1,-1,-1,-1,-1,-1,-1,-1,-1,-1,-1,-1,-1,-1,-1,-1,-1,-1,-1,-1,-1,-1,-1,-1,-1,-1],"loss_changes":[4.505327E3,1.090536E3,1.1555459E3,5.7680396E2,3.6635352E2,7.619662E2,6.788313E2,2.7195297E2,4.1144513E2,4.5182748E2,4.376477E2,2.086283E2,5.1256775E2,5.0719287E2,2.355902E2,3.4892838E2,8.343573E1,2.1147894E2,3.6880353E2,1.8845482E2,1.1946175E2,3.4802246E2,4.6589923E2,0E0,1.9559592E2,5.9310114E2,6.444579E2,7.240408E2,4.353656E2,3.5125763E1,6.6870895E1,3.3201556E2,2.9990094E2,0E0,1.8280317E-1,4.6274896E2,1.1289993E2,0E0,2.8501257E2,1.03695984E2,1.0943591E2,3.4406857E2,1.4154367E2,5.3717944E2,3.9422192E2,2.099718E2,6.3744415E1,7.4358505E1,9.831964E1,7.0805884E2,4.9483377E2,1.0497896E3,6.500591E2,4.1881177E2,1.5717377E1,5.384033E0,2.0971997E2,0E0,2.2407207E1,0E0,9.840827E0,0E0,0E0,0E0,0E0,0E0,0E0,0E0,0E0,0E0,0E0,0E0,0E0,0E0,0E0,0E0,0E0,0E0,0E0,0E0,0E0,0E0,0E0,0E0,0E0,0E0,0E0,0E0,0E0,0E0,0E0,0E0,0E0,0E0,0E0,0E0,0E0,0E0,0E0,0E0,0E0,0E0,0E0,0E0,0E0,0E0,0E0,0E0,0E0,0E0,0E0,0E0,0E0],"parents":[2147483647,0,0,1,1,2,2,3,3,4,4,5,5,6,6,7,7,8,8,9,9,10,10,11,11,12,12,13,13,14,14,15,15,16,16,17,17,18,18,19,19,20,20,21,21,22,22,24,24,25,25,26,26,27,27,28,28,29,29,30,30,31,31,32,32,34,34,35,35,36,36,38,38,39,39,40,40,41,41,42,42,43,43,44,44,45,45,46,46,47,47,48,48,49,49,50,50,51,51,52,52,53,53,54,54,55,55,56,56,58,58,60,60],"right_children":[2,4,6,8,10,12,14,16,18,20,22,24,26,28,30,32,34,36,38,40,42,44,46,-1,48,50,52,54,56,58,60,62,64,-1,66,68,70,-1,72,74,76,78,80,82,84,86,88,90,92,94,96,98,100,102,104,106,108,-1,110,-1,112,-1,-1,-1,-1,-1,-1,-1,-1,-1,-1,-1,-1,-1,-1,-1,-1,-1,-1,-1,-1,-1,-1,-1,-1,-1,-1,-1,-1,-1,-1,-1,-1,-1,-1,-1,-1,-1,-1,-1,-1,-1,-1,-1,-1,-1,-1,-1,-1,-1,-1,-1,-1],"split_conditions":[2.9E1,2.1331647E2,4.4333332E1,8.1704216E1,-1.2439166E0,9.107359E0,2.4144167E1,1.2999999E1,1.5E1,1.5315873E1,1.8076918E1,-2.6043336E0,1E-1,6.4333336E1,5.2333332E1,4.2769165E0,1.3095668E1,1.4846979E2,-3.8605835E0,2.3909608E2,2.94121E2,7E-1,2.7999997E0,4.0367017E0,2.3810835E0,1.7873556E1,1.5711313E2,6.2E1,1.0163227E1,7.5790005E0,5.2666668E1,-5.060583E0,1.967275E1,-2.2361648E0,1.1333333E1,1.4621815E2,6.8E0,-2.02189E0,1.621643E2,-3.2585E0,4E-1,-3.8605835E0,-3.61475E0,2.7004987E2,1.2E1,2.2725668E1,2.4142734E2,3.3E1,1.4846979E2,3.2333332E1,2.5650418E2,1.3608762E1,1.6948215E2,4.6333332E1,6.3333332E1,6.5333336E1,9.3E0,-2.513207E0,4.8E1,1.976734E0,2E-1,-1.1984154E0,3.3275443E-1,-7.777722E-1,1.2630818E0,2.296629E-2,-1.161192E-1,-8.775663E-2,3.7735302E0,-8.296449E-1,3.3909458E-1,6.650733E-1,1.5420707E-1,3.481858E0,-2.2939397E-2,2.8997582E-1,1.5661278E0,-1.2452242E0,6.2629676E-1,-1.2491704E-1,-1.2035263E0,-1.3002779E-1,-7.588979E-1,-9.2866844E-1,1.008536E0,-2.9282263E-1,1.761535E0,5.79151E-1,2.908354E0,-1.8393958E0,5.574047E-1,1.0410544E0,3.1402247E0,-2.486744E-2,1.3216945E0,-9.900954E-1,7.7269787E-1,-1.25018E0,1.2091104E0,-2.4145799E0,-1.3458884E-1,2.0455954E0,9.664551E-1,-7.6014864E-1,-3.3715005E0,-6.3325884E-3,-8.1652534E-1,3.2630029E0,-6.3954395E-1,-1.5373131E0,-2.6360965E-1,3.5832712E-1,-2.7300695E-1],"split_indices":[0,4,0,4,1,3,3,2,0,3,1,1,2,0,0,1,1,4,1,4,4,2,2,0,1,3,4,0,3,1,0,1,1,0,0,4,2,0,4,1,2,1,1,4,2,3,4,0,4,0,4,3,4,0,0,0,2,0,0,0,2,0,0,0,0,0,0,0,0,0,0,0,0,0,0,0,0,0,0,0,0,0,0,0,0,0,0,0,0,0,0,0,0,0,0,0,0,0,0,0,0,0,0,0,0,0,0,0,0,0,0,0,0],"split_type":[0,0,0,0,0,0,0,0,0,0,0,0,0,0,0,0,0,0,0,0,0,0,0,0,0,0,0,0,0,0,0,0,0,0,0,0,0,0,0,0,0,0,0,0,0,0,0,0,0,0,0,0,0,0,0,0,0,0,0,0,0,0,0,0,0,0,0,0,0,0,0,0,0,0,0,0,0,0,0,0,0,0,0,0,0,0,0,0,0,0,0,0,0,0,0,0,0,0,0,0,0,0,0,0,0,0,0,0,0,0,0,0,0],"sum_hessian":[2.485E3,1.721E3,7.64E2,7.51E2,9.7E2,5.26E2,2.38E2,2.24E2,5.27E2,1.42E2,8.28E2,1.7E1,5.09E2,2.22E2,1.6E1,2.14E2,1E1,1.06E2,4.21E2,6E1,8.2E1,7.75E2,5.3E1,4E0,1.3E1,2.23E2,2.86E2,1.98E2,2.4E1,8E0,8E0,9.8E1,1.16E2,8E0,2E0,4.2E1,6.4E1,5E0,4.16E2,3E0,5.7E1,3.6E1,4.6E1,4.89E2,2.86E2,4.6E1,7E0,3E0,1E1,1.67E2,5.6E1,9.1E1,1.95E2,1.95E2,3E0,3E0,2.1E1,3E0,5E0,1E0,7E0,1.4E1,8.4E1,1.1E2,6E0,1E0,1E0,4E1,2E0,5.6E1,8E0,1.59E2,2.57E2,2E0,1E0,5.1E1,6E0,1.3E1,2.3E1,1.8E1,2.8E1,2.44E2,2.45E2,2.77E2,9E0,4.2E1,4E0,2E0,5E0,1E0,2E0,6E0,4E0,5E1,1.17E2,3.1E1,2.5E1,1.9E1,7.2E1,1.1E1,1.84E2,4.2E1,1.53E2,1E0,2E0,1E0,2E0,2E1,1E0,2E0,3E0,3E0,4E0],"tree_param":{"num_deleted":"0","num_feature":"5","num_nodes":"113","size_leaf_vector":"1"}},{"base_weights":[3.0085523E-2,-3.5534173E-1,2.414969E0,-8.698248E-1,4.4566223E-1,3.5071814E0,-5.7423208E-2,1.0433316E0,-1.0347694E0,1.5318995E0,-1.6289367E-1,-4.3153512E-1,4.2272015E0,-4.4202724E0,9.9633837E-1,3.1702372E-1,7.838924E0,-1.1946884E0,7.378862E-1,-5.0114363E-2,2.8187788E0,9.638532E-1,-1.2045528E0,2.155635E0,-3.13216E0,7.982272E0,3.1980386E0,-4.2318124E-1,-9.702707E0,5.378502E0,1.5381636E-1,3.6198404E0,-5.563099E-1,2.156577E0,3.9269867E0,-8.8764775E-1,-1.9555948E0,-1.6198699E-1,8.033404E0,6.4151363E0,-5.043108E-1,-3.2338122E-1,4.743822E0,2.1855726E0,-1.0005366E0,-6.3810587E-1,-3.4589455E0,3.1098273E0,-4.288063E0,-7.490614E0,3.4489315E-2,4.448862E0,1.3124613E1,-2.4573252E0,4.731422E0,-3.4417603E0,5.0948973E0,-1.524512E-1,-3.7228723E0,7.2550964E0,-1.1267586E0,-1.3230522E0,2.6273522E0,3.0265224E0,5.6546783E-1,-1.4475973E0,-5.631384E-2,-5.638388E-1,1.3933388E0,-1.866677E-1,-7.49546E-1,-6.856251E-1,1.552372E-1,-1.7182001E-1,1.7051752E0,3.6723197E0,7.46053E-1,1.1571808E-1,2.136179E0,6.244799E-3,-1.5453793E0,3.6204252E0,-2.7532572E-1,2.463171E0,2.714577E-1,2.0093589E-1,2.1103256E0,-1.2492816E0,1.648558E-1,-5.2536264E-2,-9.439349E-1,-1.5893528E0,-4.2551696E-2,-3.4279186E-1,1.4499861E0,8.182869E-2,-2.0114572E0,-2.4796786E0,-3.098614E-1,-1.375782E0,1.6257725E0,8.171945E-1,5.2019734E0,4.280499E0,-7.7622473E-1,9.567779E-1,-1.4530588E0,2.4615006E0,7.764395E-1,-3.8095716E-1,-2.2086844E0,2.323844E0,-8.2651466E-1,-1.3412774E0,1.2726743E0,-6.723187E-1,2.5286458E0,5.1410466E-1,-7.9343987E-1,2.577421E0,-5.863844E-1,2.5841715E0,-5.9389234E-2],"categories":[],"categories_nodes":[],"categories_segments":[],"categories_sizes":[],"default_left":[0,0,0,0,0,0,0,0,0,0,0,0,0,0,0,0,0,0,0,0,0,0,0,0,0,0,0,0,0,0,0,0,0,0,0,0,0,0,0,0,0,0,0,0,0,0,0,0,0,0,0,0,0,0,0,0,0,0,0,0,0,0,0,0,0,0,0,0,0,0,0,0,0,0,0,0,0,0,0,0,0,0,0,0,0,0,0,0,0,0,0,0,0,0,0,0,0,0,0,0,0,0,0,0,0,0,0,0,0,0,0,0,0,0,0,0,0,0,0,0,0,0,0],"id":6,"left_children":[1,3,5,7,9,11,13,15,17,19,21,23,25,27,29,31,33,35,37,39,41,43,45,47,49,51,53,55,57,59,61,63,65,67,-1,69,71,73,75,77,79,81,83,85,87,89,91,93,95,97,99,101,103,105,107,109,111,113,-1,115,117,119,121,-1,-1,-1,-1,-1,-1,-1,-1,-1,-1,-1,-1,-1,-1,-1,-1,-1,-1,-1,-1,-1,-1,-1,-1,-1,-1,-1,-1,-1,-1,-1,-1,-1,-1,-1,-1,-1,-1,-1,-1,-1,-1,-1,-1,-1,-1,-1,-1,-1,-1,-1,-1,-1,-1,-1,-1,-1,-1,-1,-1],"loss_changes":[2.285987E3,8.827003E2,9.345321E2,4.125761E2,5.5419775E2,6.824531E2,4.963262E2,5.108269E2,3.4134265E2,6.129355E2,6.326042E2,2.722569E2,7.5898193E2,4.3929587E2,3.2038275E2,2.7603754E2,2.701524E2,2.5572351E2,6.578054E2,4.0259836E2,1.0056339E3,6.237694E2,3.5535107E2,1.3630568E2,2.6249054E2,7.2292017E2,1.4077931E3,2.3407327E2,2.3076947E2,1.790831E2,2.738046E2,2.0543692E2,1.18683754E2,6.8976326E1,0E0,3.349289E2,2.5893347E2,2.1936188E2,2.2627686E2,3.5534973E1,3.124579E2,4.824438E2,1.3633682E3,1.1712588E3,4.9268497E2,2.607472E2,3.4083832E2,1.3744386E2,3.489655E1,3.1499725E1,3.234107E2,5.531255E2,3.4240967E2,4.8703394E2,9.2426514E2,6.728588E1,1.2540181E2,7.590193E1,0E0,1.4149384E2,2.1779968E1,3.1108798E2,4.7529456E2,0E0,0E0,0E0,0E0,0E0,0E0,0E0,0E0,0E0,0E0,0E0,0E0,0E0,0E0,0E0,0E0,0E0,0E0,0E0,0E0,0E0,0E0,0E0,0E0,0E0,0E0,0E0,0E0,0E0,0E0,0E0,0E0,0E0,0E0,0E0,0E0,0E0,0E0,0E0,0E0,0E0,0E0,0E0,0E0,0E0,0E0,0E0,0E0,0E0,0E0,0E0,0E0,0E0,0E0,0E0,0E0,0E0,0E0,0E0,0E0],"parents":[2147483647,0,0,1,1,2,2,3,3,4,4,5,5,6,6,7,7,8,8,9,9,10,10,11,11,12,12,13,13,14,14,15,15,16,16,17,17,18,18,19,19,20,20,21,21,22,22,23,23,24,24,25,25,26,26,27,27,28,28,29,29,30,30,31,31,32,32,33,33,35,35,36,36,37,37,38,38,39,39,40,40,41,41,42,42,43,43,44,44,45,45,46,46,47,47,48,48,49,49,50,50,51,51,52,52,53,53,54,54,55,55,56,56,57,57,59,59,60,60,61,61,62,62],"right_children":[2,4,6,8,10,12,14,16,18,20,22,24,26,28,30,32,34,36,38,40,42,44,46,48,50,52,54,56,58,60,62,64,66,68,-1,70,72,74,76,78,80,82,84,86,88,90,92,94,96,98,100,102,104,106,108,110,112,114,-1,116,118,120,122,-1,-1,-1,-1,-1,-1,-1,-1,-1,-1,-1,-1,-1,-1,-1,-1,-1,-1,-1,-1,-1,-1,-1,-1,-1,-1,-1,-1,-1,-1,-1,-1,-1,-1,-1,-1,-1,-1,-1,-1,-1,-1,-1,-1,-1,-1,-1,-1,-1,-1,-1,-1,-1,-1,-1,-1,-1,-1,-1,-1],"split_conditions":[3.9666668E1,2.3333334E1,2.3725418E2,1.1212135E1,1.8225099E2,7.748334E-1,4.2666668E1,4.5E0,1.8076918E1,8.953669E1,3E-1,-1.7043333E0,4.2666668E1,5.820667E0,-1.6105833E0,-7.980833E-1,1.8666666E1,1.2247749E1,2.8999999E0,9.449572E0,1.4408997E1,1.006025E1,3.3666668E1,1.7E0,-7.980833E-1,1.621643E2,4.5666668E1,1.9269167E0,4.0666668E1,3.4310852E2,2.8592365E2,8.311245E0,1E1,1.4101917E1,3.9269867E0,2.5478743E1,2.2725668E1,2.3166218E1,1.5856356E1,7.9932966E0,2.3042812E1,2.3666666E1,2.1000001E0,4.4789996E0,1.4493581E1,6.7000003E0,3.7666668E1,4.4666668E1,4.1E1,8.599999E0,2.6999998E0,4.2333332E1,2.0372753E1,1.4986553E1,1E-1,1.6456666E0,4.2E1,4.0333332E1,-3.7228723E0,4.3E1,-5.629333E0,9.904906E0,3.0025632E2,3.0265224E0,5.6546783E-1,-1.4475973E0,-5.631384E-2,-5.638388E-1,1.3933388E0,-1.866677E-1,-7.49546E-1,-6.856251E-1,1.552372E-1,-1.7182001E-1,1.7051752E0,3.6723197E0,7.46053E-1,1.1571808E-1,2.136179E0,6.244799E-3,-1.5453793E0,3.6204252E0,-2.7532572E-1,2.463171E0,2.714577E-1,2.0093589E-1,2.1103256E0,-1.2492816E0,1.648558E-1,-5.2536264E-2,-9.439349E-1,-1.5893528E0,-4.2551696E-2,-3.4279186E-1,1.4499861E0,8.182869E-2,-2.0114572E0,-2.4796786E0,-3.098614E-1,-1.375782E0,1.6257725E0,8.171945E-1,5.2019734E0,4.280499E0,-7.7622473E-1,9.567779E-1,-1.4530588E0,2.4615006E0,7.764395E-1,-3.8095716E-1,-2.2086844E0,2.323844E0,-8.2651466E-1,-1.3412774E0,1.2726743E0,-6.723187E-1,2.5286458E0,5.1410466E-1,-7.9343987E-1,2.577421E0,-5.863844E-1,2.5841715E0,-5.9389234E-2],"split_indices":[0,0,4,3,4,1,0,2,1,4,2,1,0,1,1,1,0,1,2,3,3,1,0,2,1,4,0,1,0,4,4,3,0,1,0,3,3,3,3,3,3,0,2,1,1,2,0,0,0,2,2,0,1,3,2,1,0,0,0,0,1,3,4,0,0,0,0,0,0,0,0,0,0,0,0,0,0,0,0,0,0,0,0,0,0,0,0,0,0,0,0,0,0,0,0,0,0,0,0,0,0,0,0,0,0,0,0,0,0,0,0,0,0,0,0,0,0,0,0,0,0,0,0],"split_type":[0,0,0,0,0,0,0,0,0,0,0,0,0,0,0,0,0,0,0,0,0,0,0,0,0,0,0,0,0,0,0,0,0,0,0,0,0,0,0,0,0,0,0,0,0,0,0,0,0,0,0,0,0,0,0,0,0,0,0,0,0,0,0,0,0,0,0,0,0,0,0,0,0,0,0,0,0,0,0,0,0,0,0,0,0,0,0,0,0,0,0,0,0,0,0,0,0,0,0,0,0,0,0,0,0,0,0,0,0,0,0,0,0,0,0,0,0,0,0,0,0,0,0],"sum_hessian":[2.485E3,2.14E3,3.45E2,1.303E3,8.37E2,2.39E2,1.06E2,1.03E2,1.2E3,3E2,5.37E2,3.7E1,2.02E2,2E1,8.6E1,9.4E1,9E0,1.101E3,9.9E1,1.35E2,1.65E2,2.58E2,2.79E2,1.9E1,1.8E1,4.2E1,1.6E2,1.2E1,8E0,1.3E1,7.3E1,1.9E1,7.5E1,5E0,4E0,7.86E2,3.15E2,8.9E1,1E1,8E0,1.27E2,6.3E1,1.02E2,1.59E2,9.9E1,2.24E2,5.5E1,1.7E1,2E0,7E0,1.1E1,2.6E1,1.6E1,3.4E1,1.26E2,8E0,4E0,2E0,6E0,1E1,3E0,4.6E1,2.7E1,3E0,1.6E1,5E0,7E1,2E0,3E0,6.76E2,1.1E2,2.78E2,3.7E1,8.4E1,5E0,5E0,5E0,1E0,7E0,1.15E2,1.2E1,2E0,6.1E1,5.3E1,4.9E1,1.22E2,3.7E1,3.2E1,6.7E1,1.9E2,3.4E1,3.5E1,2E1,5E0,1.2E1,1E0,1E0,6E0,1E0,6E0,5E0,2.4E1,2E0,1.5E1,1E0,1E1,2.4E1,4.7E1,7.9E1,6E0,2E0,3E0,1E0,1E0,1E0,1E0,9E0,1E0,2E0,2E0,4.4E1,8E0,1.9E1],"tree_param":{"num_deleted":"0","num_feature":"5","num_nodes":"123","size_leaf_vector":"1"}},{"base_weights":[3.1853534E-2,-4.26358E-1,1.0632371E0,2.2888489E-1,-8.189862E-1,8.050941E-1,3.5751545E0,-6.1284184E-2,3.765461E0,-6.800137E-1,-2.5194378E0,2.6269813E0,4.6172777E-1,2.2819304E0,5.72566E0,-3.7983356E0,5.4599136E-2,1.8927664E0,1.3126425E1,-8.2695127E-1,9.062685E-1,-4.6311724E-1,-3.3771322E0,3.5579343E0,-3.5062492E0,-5.5491465E-1,1.0610945E0,6.186391E0,5.5634344E-1,1.1680046E1,5.804405E-1,-7.8861E-2,-4.536973E0,-1.7654793E-1,1.957944E0,4.236408E0,-4.319372E0,-6.0070497E-1,1.5573728E1,-5.251889E-1,-1.921046E0,1.2370047E-1,4.8661704E0,-3.1974268E0,1.0117005E0,9.3459266E-1,-3.5486991E0,1.6611615E0,5.6706953E0,-5.3535986E0,1.7003044E0,-6.9048613E-1,2.8173614E0,3.328526E0,4.8103195E-1,-8.472398E-1,1.0188101E1,-8.503082E-1,3.876673E0,9.079491E-1,1.69526E1,-2.1190653E0,3.0800676E0,5.4717267E-1,-3.9632618E-1,-1.4736216E0,1.0716076E-1,-2.3283526E-1,3.0194086E-1,1.6231458E0,-7.652894E-1,3.526257E0,5.8859193E-1,-2.8937137E0,7.8437585E-1,5.365897E0,2.547232E-1,1.5538138E0,-1.7418402E-1,-6.148409E-1,1.4363319E0,5.818971E-1,-3.227974E-1,6.152859E-1,2.2165184E0,-2.9585025E-1,-1.2416086E0,2.6225588E0,-5.3402963E-3,-9.618608E-1,-2.1598806E0,8.1676584E-1,-1.6653014E0,3.3301976E0,4.9187538E-1,2.492695E-2,-1.9048924E0,8.3370036E-1,-3.2947737E-1,2.0321238E0,-7.6088025E-3,1.8945729E-3,9.35462E-1,-7.954363E-1,1.2260748E0,4.513873E0,9.8770183E-1,4.0793934E-1,-1.2241309E0,2.0895803E0,-1.8149266E-1,8.1022656E-1,-9.3949133E-1,9.7881776E-1,5.5326586E0,1.7886742E0,-6.4423007E-1],"categories":[],"categories_nodes":[],"categories_segments":[],"categories_sizes":[],"default_left":[0,0,0,0,0,0,0,0,0,0,0,0,0,0,0,0,0,0,0,0,0,0,0,0,0,0,0,0,0,0,0,0,0,0,0,0,0,0,0,0,0,0,0,0,0,0,0,0,0,0,0,0,0,0,0,0,0,0,0,0,0,0,0,0,0,0,0,0,0,0,0,0,0,0,0,0,0,0,0,0,0,0,0,0,0,0,0,0,0,0,0,0,0,0,0,0,0,0,0,0,0,0,0,0,0,0,0,0,0,0,0,0,0,0,0,0,0],"id":7,"left_children":[1,3,5,7,9,11,13,15,17,19,21,23,25,27,29,31,33,35,37,39,41,43,45,47,49,51,53,55,57,59,61,63,65,67,69,71,73,-1,75,77,79,81,83,85,87,-1,89,91,93,95,-1,97,-1,99,101,103,105,107,109,111,113,-1,115,-1,-1,-1,-1,-1,-1,-1,-1,-1,-1,-1,-1,-1,-1,-1,-1,-1,-1,-1,-1,-1,-1,-1,-1,-1,-1,-1,-1,-1,-1,-1,-1,-1,-1,-1,-1,-1,-1,-1,-1,-1,-1,-1,-1,-1,-1,-1,-1,-1,-1,-1,-1,-1,-1],"loss_changes":[1.1753167E3,4.4320093E2,4.9317352E2,6.631591E2,2.5279907E2,4.3356155E2,1.8439154E2,2.591784E2,8.341357E2,2.3313461E2,1.4129523E2,6.4054736E2,3.57663E2,3.064826E2,7.8977264E2,4.909439E1,2.5595813E2,6.297778E2,3.273817E2,3.0042407E2,2.6280392E2,1.0405004E2,7.4546936E1,3.752931E2,2.8455432E2,3.0043787E2,4.8372687E2,4.0268353E2,1.574244E2,6.6616565E2,3.0836313E2,1.1864224E1,2.9291595E1,3.6890848E2,9.945353E2,5.069986E2,4.6841095E2,0E0,2.2317834E2,2.2970293E2,1.7954218E2,1.5894539E2,8.425528E1,1.4651062E1,1.3544524E2,0E0,4.6940186E1,4.1316928E2,9.667948E2,7.0924835E1,0E0,3.0863995E2,0E0,8.66788E2,3.6929404E2,6.4249916E1,2.519679E2,1.7688277E2,1.4263382E2,4.4668762E1,1.029668E2,0E0,1.9360269E2,0E0,0E0,0E0,0E0,0E0,0E0,0E0,0E0,0E0,0E0,0E0,0E0,0E0,0E0,0E0,0E0,0E0,0E0,0E0,0E0,0E0,0E0,0E0,0E0,0E0,0E0,0E0,0E0,0E0,0E0,0E0,0E0,0E0,0E0,0E0,0E0,0E0,0E0,0E0,0E0,0E0,0E0,0E0,0E0,0E0,0E0,0E0,0E0,0E0,0E0,0E0,0E0,0E0,0E0],"parents":[2147483647,0,0,1,1,2,2,3,3,4,4,5,5,6,6,7,7,8,8,9,9,10,10,11,11,12,12,13,13,14,14,15,15,16,16,17,17,18,18,19,19,20,20,21,21,22,22,23,23,24,24,25,25,26,26,27,27,28,28,29,29,30,30,31,31,32,32,33,33,34,34,35,35,36,36,38,38,39,39,40,40,41,41,42,42,43,43,44,44,46,46,47,47,48,48,49,49,51,51,53,53,54,54,55,55,56,56,57,57,58,58,59,59,60,60,62,62],"right_children":[2,4,6,8,10,12,14,16,18,20,22,24,26,28,30,32,34,36,38,40,42,44,46,48,50,52,54,56,58,60,62,64,66,68,70,72,74,-1,76,78,80,82,84,86,88,-1,90,92,94,96,-1,98,-1,100,102,104,106,108,110,112,114,-1,116,-1,-1,-1,-1,-1,-1,-1,-1,-1,-1,-1,-1,-1,-1,-1,-1,-1,-1,-1,-1,-1,-1,-1,-1,-1,-1,-1,-1,-1,-1,-1,-1,-1,-1,-1,-1,-1,-1,-1,-1,-1,-1,-1,-1,-1,-1,-1,-1,-1,-1,-1,-1,-1,-1],"split_conditions":[2.9E1,2.0030672E2,5.5E1,1.9382986E2,2.7553526E1,1.2287555E1,1.0660249E1,1E1,3.7000003E0,3.402948E2,1E-1,1.8514418E1,3.612334E0,1.2475961E1,1.10509605E2,4.6352496E0,1.8631083E1,2.5E1,1.4E1,2.9783173E2,1.5058166E1,5.0602503E0,6E0,2.793583E0,1.1013882E1,3.3161064E1,6.1894164E0,1.0787098E2,2.7367093E2,5.27217E1,1.2984975E1,7.6666665E0,1.8764418E1,1.4621815E2,1.5161314E2,1.4081478E1,1.7072504E1,-6.0070497E-1,1.9917561E2,8.587338E0,1.0300002E1,1.0498333E0,1.8333334E1,1.5E1,5.174833E0,9.3459266E-1,1.5487329E1,1.8831664E0,9.531083E0,3.0333334E1,1.7003044E0,3.0333334E1,2.8173614E0,1.757744E1,1.967275E1,9.000001E-1,2.3165002E0,1.5408606E2,3.2920624E2,1.9164719E1,1.1885453E1,-2.1190653E0,2.167487E1,5.4717267E-1,-3.9632618E-1,-1.4736216E0,1.0716076E-1,-2.3283526E-1,3.0194086E-1,1.6231458E0,-7.652894E-1,3.526257E0,5.8859193E-1,-2.8937137E0,7.8437585E-1,5.365897E0,2.547232E-1,1.5538138E0,-1.7418402E-1,-6.148409E-1,1.4363319E0,5.818971E-1,-3.227974E-1,6.152859E-1,2.2165184E0,-2.9585025E-1,-1.2416086E0,2.6225588E0,-5.3402963E-3,-9.618608E-1,-2.1598806E0,8.1676584E-1,-1.6653014E0,3.3301976E0,4.9187538E-1,2.492695E-2,-1.9048924E0,8.3370036E-1,-3.2947737E-1,2.0321238E0,-7.6088025E-3,1.8945729E-3,9.35462E-1,-7.954363E-1,1.2260748E0,4.513873E0,9.8770183E-1,4.0793934E-1,-1.2241309E0,2.0895803E0,-1.8149266E-1,8.1022656E-1,-9.3949133E-1,9.7881776E-1,5.5326586E0,1.7886742E0,-6.4423007E-1],"split_indices":[0,4,0,4,3,3,1,0,2,4,2,1,1,3,4,1,1,0,0,4,1,1,0,1,3,3,1,4,4,4,3,0,1,4,4,3,3,0,4,3,2,1,0,0,1,0,1,1,1,0,0,0,0,3,1,2,1,4,4,3,3,0,3,0,0,0,0,0,0,0,0,0,0,0,0,0,0,0,0,0,0,0,0,0,0,0,0,0,0,0,0,0,0,0,0,0,0,0,0,0,0,0,0,0,0,0,0,0,0,0,0,0,0,0,0,0,0],"split_type":[0,0,0,0,0,0,0,0,0,0,0,0,0,0,0,0,0,0,0,0,0,0,0,0,0,0,0,0,0,0,0,0,0,0,0,0,0,0,0,0,0,0,0,0,0,0,0,0,0,0,0,0,0,0,0,0,0,0,0,0,0,0,0,0,0,0,0,0,0,0,0,0,0,0,0,0,0,0,0,0,0,0,0,0,0,0,0,0,0,0,0,0,0,0,0,0,0,0,0,0,0,0,0,0,0,0,0,0,0,0,0,0,0,0,0,0,0],"sum_hessian":[2.485E3,1.721E3,7.64E2,6.45E2,1.076E3,6.94E2,7E1,5.97E2,4.8E1,9.96E2,8E1,1.09E2,5.85E2,4.5E1,2.5E1,1.7E1,5.8E2,4.1E1,7E0,9.12E2,8.4E1,2.4E1,5.6E1,9.5E1,1.4E1,2.17E2,3.68E2,1.3E1,3.2E1,1.1E1,1.4E1,3E0,1.4E1,5.18E2,6.2E1,3E1,1.1E1,1E0,6E0,7.16E2,1.96E2,7.1E1,1.3E1,8E0,1.6E1,1E0,5.5E1,5.1E1,4.4E1,1.2E1,2E0,2.15E2,2E0,7.4E1,2.94E2,5E0,8E0,2.3E1,9E0,4E0,7E0,3E0,1.1E1,1E0,2E0,1.3E1,1E0,3.44E2,1.74E2,3.5E1,2.7E1,6E0,2.4E1,6E0,5E0,5E0,1E0,6E0,7.1E2,1.93E2,3E0,2.8E1,4.3E1,7E0,6E0,3E0,5E0,1E0,1.5E1,5.2E1,3E0,4.5E1,6E0,1.8E1,2.6E1,2E0,1E1,2.2E1,1.93E2,3.6E1,3.8E1,2.5E2,4.4E1,4E0,1E0,4E0,4E0,1.4E1,9E0,5E0,4E0,3E0,1E0,1E0,6E0,7E0,4E0],"tree_param":{"num_deleted":"0","num_feature":"5","num_nodes":"117","size_leaf_vector":"1"}},{"base_weights":[3.5342954E-2,-4.24503E-1,6.393124E-1,1.2501146E-1,-7.847651E-1,4.953592E-1,2.7976623E0,-1.3309177E0,4.3672568E-1,-3.805867E-1,-1.2821145E0,3.134754E0,3.6889914E-1,1.7057359E0,4.8124027E0,1.0856148E0,-1.9184144E0,2.1229449E-1,2.618688E0,-4.4427255E-1,1.696957E0,-6.482793E-1,-2.2909784E0,4.962219E0,1.6350958E-2,2.3979628E-1,2.9401305E0,6.1434917E0,7.2658366E-1,-3.2700753E0,6.686086E0,2.3575683E0,-1.1170113E0,-3.172439E0,-7.65592E-1,7.687876E-1,-5.412454E-1,5.7226834E0,-6.0433847E-1,3.9957175E-1,-8.59405E-1,-1.6533333E0,-6.1026134E-2,2.5172973E0,-2.5858238E0,6.58982E-1,5.8312697E0,-2.4733682E0,9.8726106E-1,4.4268316E-1,-1.3543912E0,1.9900862E0,7.2040796E0,3.2712166E0,1.106343E0,-9.6079326E-1,2.8675077E0,8.3199525E-1,-1.6422759E0,1.3855517E1,4.475848E0,1.5627229E-1,1.5576133E0,-9.814104E-1,2.4896285E-1,-4.2604598E-1,-1.314683E0,3.884914E-1,-6.902989E-1,-2.628153E-1,4.759384E-1,-1.6392559E0,-1.729746E-2,-1.9824034E0,2.185846E0,-5.7508904E-1,2.5043821E0,-5.913089E-2,1.4855639E0,-8.295854E-1,-2.0764248E-1,-6.652615E-1,-4.9620997E-2,6.853176E-1,-2.149293E-1,1.2032409E0,-1.0568569E-1,-1.3841314E0,-5.6556433E-1,-3.1923273E-1,1.3911656E0,-3.6404574E-1,1.9580581E0,1.1962084E-1,1.560549E0,7.192778E-2,7.705735E-1,5.6138116E-1,-7.196572E-1,1.5682759E0,1.0727488E-1,2.4151645E0,1.9182016E-1,1.2772174E0,-2.2373E-1,1.9560681E-1,-1.9724317E0,1.564872E0,-6.923624E-1,1.2318232E0,4.7209916E0,1.7542508E0,-3.302968E-1],"categories":[],"categories_nodes":[],"categories_segments":[],"categories_sizes":[],"default_left":[0,0,0,0,0,0,0,0,0,0,0,0,0,0,0,0,0,0,0,0,0,0,0,0,0,0,0,0,0,0,0,0,0,0,0,0,0,0,0,0,0,0,0,0,0,0,0,0,0,0,0,0,0,0,0,0,0,0,0,0,0,0,0,0,0,0,0,0,0,0,0,0,0,0,0,0,0,0,0,0,0,0,0,0,0,0,0,0,0,0,0,0,0,0,0,0,0,0,0,0,0,0,0,0,0,0,0,0,0,0,0,0,0],"id":8,"left_children":[1,3,5,7,9,11,13,15,17,19,21,23,25,27,29,31,33,35,37,39,-1,41,43,45,47,49,51,53,55,57,59,61,63,65,67,69,71,73,75,77,79,81,83,85,87,89,91,-1,93,95,97,99,101,-1,103,105,107,-1,-1,109,111,-1,-1,-1,-1,-1,-1,-1,-1,-1,-1,-1,-1,-1,-1,-1,-1,-1,-1,-1,-1,-1,-1,-1,-1,-1,-1,-1,-1,-1,-1,-1,-1,-1,-1,-1,-1,-1,-1,-1,-1,-1,-1,-1,-1,-1,-1,-1,-1,-1,-1,-1,-1],"loss_changes":[6.9071545E2,2.7963065E2,3.3261804E2,2.547282E2,1.7098029E2,3.3562567E2,1.3918787E2,1.4263342E2,2.2568567E2,1.8398679E2,2.4278607E2,2.6206247E2,3.1929797E2,1.9107198E2,3.701762E2,5.8666183E1,1.1322464E2,1.7653882E2,4.336416E2,1.6428714E2,0E0,1.3919128E2,2.1491083E2,1.04609436E2,1.5251036E2,2.9784067E2,1.7200647E2,1.7977365E2,1.4003181E2,8.1785385E1,2.3906158E2,6.497304E1,3.626915E1,7.4335754E1,1.3902303E2,3.2686557E2,4.2582507E2,4.7227765E2,2.7452435E2,4.219943E2,9.818419E1,7.266951E1,2.3221637E2,3.998459E1,1.8879315E2,4.6063686E1,1.2552661E2,0E0,4.009228E1,3.514024E2,3.5487466E2,2.0425464E2,3.9306824E1,0E0,3.235545E1,2.0348183E2,2.1868341E2,0E0,0E0,8.743652E0,1.2882993E2,0E0,0E0,0E0,0E0,0E0,0E0,0E0,0E0,0E0,0E0,0E0,0E0,0E0,0E0,0E0,0E0,0E0,0E0,0E0,0E0,0E0,0E0,0E0,0E0,0E0,0E0,0E0,0E0,0E0,0E0,0E0,0E0,0E0,0E0,0E0,0E0,0E0,0E0,0E0,0E0,0E0,0E0,0E0,0E0,0E0,0E0,0E0,0E0,0E0,0E0,0E0,0E0],"parents":[2147483647,0,0,1,1,2,2,3,3,4,4,5,5,6,6,7,7,8,8,9,9,10,10,11,11,12,12,13,13,14,14,15,15,16,16,17,17,18,18,19,19,21,21,22,22,23,23,24,24,25,25,26,26,27,27,28,28,29,29,30,30,31,31,32,32,33,33,34,34,35,35,36,36,37,37,38,38,39,39,40,40,41,41,42,42,43,43,44,44,45,45,46,46,48,48,49,49,50,50,51,51,52,52,54,54,55,55,56,56,59,59,60,60],"right_children":[2,4,6,8,10,12,14,16,18,20,22,24,26,28,30,32,34,36,38,40,-1,42,44,46,48,50,52,54,56,58,60,62,64,66,68,70,72,74,76,78,80,82,84,86,88,90,92,-1,94,96,98,100,102,-1,104,106,108,-1,-1,110,112,-1,-1,-1,-1,-1,-1,-1,-1,-1,-1,-1,-1,-1,-1,-1,-1,-1,-1,-1,-1,-1,-1,-1,-1,-1,-1,-1,-1,-1,-1,-1,-1,-1,-1,-1,-1,-1,-1,-1,-1,-1,-1,-1,-1,-1,-1,-1,-1,-1,-1,-1,-1],"split_conditions":[2.4666666E1,2.0881583E2,5.5333332E1,4.433002E1,1.8751125E1,9.726665E0,1.0660249E1,1.1609651E1,2.3333334E1,1.16E1,8E-1,1.3095668E1,2.0939419E1,5.6666668E1,1.2984975E1,5E-1,1.687398E1,1.2635251E1,2.4E1,2.7144167E0,1.696957E0,2.153089E1,-2.2126665E0,7.342588E0,1.4718583E1,1.753525E1,2.3E0,1.2475961E1,6.4333336E1,5.7E1,1.1308167E1,2E-1,1.0000001E0,1.9894166E0,1.9296135E1,1.0343822E2,1.36727495E1,8.587338E0,1.0500001E1,1.5748333E0,4.4789996E0,3.033629E2,2.4302356E2,6.5999994E0,2.793583E0,1.7102499E0,-6.7022495E0,-2.4733682E0,1.12E1,1.57664995E1,1.5161314E2,2.7666666E1,4.9E1,3.2712166E0,3.7275013E-1,6.1666668E1,7.3666664E1,8.3199525E-1,-1.6422759E0,1.0824834E1,2.3166218E1,1.5627229E-1,1.5576133E0,-9.814104E-1,2.4896285E-1,-4.2604598E-1,-1.314683E0,3.884914E-1,-6.902989E-1,-2.628153E-1,4.759384E-1,-1.6392559E0,-1.729746E-2,-1.9824034E0,2.185846E0,-5.7508904E-1,2.5043821E0,-5.913089E-2,1.4855639E0,-8.295854E-1,-2.0764248E-1,-6.652615E-1,-4.9620997E-2,6.853176E-1,-2.149293E-1,1.2032409E0,-1.0568569E-1,-1.3841314E0,-5.6556433E-1,-3.1923273E-1,1.3911656E0,-3.6404574E-1,1.9580581E0,1.1962084E-1,1.560549E0,7.192778E-2,7.705735E-1,5.6138116E-1,-7.196572E-1,1.5682759E0,1.0727488E-1,2.4151645E0,1.9182016E-1,1.2772174E0,-2.2373E-1,1.9560681E-1,-1.9724317E0,1.564872E0,-6.923624E-1,1.2318232E0,4.7209916E0,1.7542508E0,-3.302968E-1],"split_indices":[0,4,0,4,3,3,1,3,0,2,2,1,1,0,3,2,3,1,0,1,0,3,1,3,1,1,2,3,0,0,1,2,2,1,3,4,1,3,2,1,1,4,4,2,1,1,1,0,2,1,4,0,0,0,1,0,0,0,0,1,3,0,0,0,0,0,0,0,0,0,0,0,0,0,0,0,0,0,0,0,0,0,0,0,0,0,0,0,0,0,0,0,0,0,0,0,0,0,0,0,0,0,0,0,0,0,0,0,0,0,0,0,0],"split_type":[0,0,0,0,0,0,0,0,0,0,0,0,0,0,0,0,0,0,0,0,0,0,0,0,0,0,0,0,0,0,0,0,0,0,0,0,0,0,0,0,0,0,0,0,0,0,0,0,0,0,0,0,0,0,0,0,0,0,0,0,0,0,0,0,0,0,0,0,0,0,0,0,0,0,0,0,0,0,0,0,0,0,0,0,0,0,0,0,0,0,0,0,0,0,0,0,0,0,0,0,0,0,0,0,0,0,0,0,0,0,0,0,0],"sum_hessian":[2.485E3,1.411E3,1.074E3,5.59E2,8.52E2,1.008E3,6.6E1,9.8E1,4.61E2,4.71E2,3.81E2,4.5E1,9.63E2,4.4E1,2.2E1,1.9E1,7.9E1,4.19E2,4.2E1,4.67E2,4E0,2.35E2,1.46E2,2.8E1,1.7E1,9.18E2,4.5E1,7E0,3.7E1,4E0,1.8E1,1.2E1,7E0,3.7E1,4.2E1,2.41E2,1.78E2,2.1E1,2.1E1,1.54E2,3.13E2,8.6E1,1.49E2,8E0,1.38E2,5E0,2.3E1,1E0,1.6E1,8.15E2,1.03E2,3.8E1,7E0,3E0,4E0,2.1E1,1.6E1,1E0,3E0,3E0,1.5E1,8E0,4E0,3E0,4E0,1.6E1,2.1E1,1.8E1,2.4E1,8E1,1.61E2,1.5E1,1.63E2,2E0,1.9E1,1.9E1,2E0,1.37E2,1.7E1,2.4E1,2.89E2,6.2E1,2.4E1,3.2E1,1.17E2,5E0,3E0,3.4E1,1.04E2,4E0,1E0,2E0,2.1E1,1.5E1,1E0,7.45E2,7E1,2.5E1,7.8E1,1.2E1,2.6E1,6E0,1E0,1E0,3E0,1.7E1,4E0,1.1E1,5E0,1E0,2E0,1.2E1,3E0],"tree_param":{"num_deleted":"0","num_feature":"5","num_nodes":"113","size_leaf_vector":"1"}},{"base_weights":[3.175719E-2,-1.380418E-1,1.082358E0,7.259677E-2,-7.2290546E-1,1.78125E0,-4.9536577E-1,3.8982052E-1,-4.1926882E-1,1.1137626E0,-9.2636377E-1,1.4847212E0,7.8194647E0,-3.0579727E0,-2.1356584E-1,6.6363233E-1,-2.467027E0,1.2738574E0,-8.906588E-1,-1.8667445E0,3.1848922E0,-7.332788E-1,-3.0107937E0,4.0650306E0,7.637257E-1,1.4033402E1,3.0228296E-1,-2.2891328E0,1.151862E0,-6.828603E-1,1.1391859E0,3.1854992E0,-3.3624144E0,1.3193694E-1,3.7139676E0,-2.6611223E0,-4.7393286E-1,2.2845953E0,-4.0852017E0,2.218907E0,9.875053E0,-8.449641E-1,3.9937072E0,-4.461979E0,-2.8304482E-1,1.7056271E0,1.0010238E1,4.0659165E0,-8.4169336E-2,1.5476818E-1,4.9901175E0,1.5662632E0,-1.483785E0,-5.6621633E0,1.3535246E0,2.8351355E0,-2.6930966E0,1.5080586E-1,-8.8207835E-1,9.893647E-1,1.6260818E-1,-2.0774853E0,1.7700254E0,-1.1825708E0,1.5921011E0,-3.5599756E-1,4.5149833E-1,-7.2081846E-1,1.6920966E0,-3.1983185E0,-6.236445E-1,-2.0539358E-1,4.0554258E-1,9.812799E-1,-2.3351747E-1,-6.1610734E-1,-1.5296217E0,9.8725003E-1,-3.8227025E-1,3.7836535E0,2.4955216E-1,-3.281526E-1,5.62766E-2,2.5619464E0,-9.508782E-1,9.7766024E-1,-1.6556506E0,-1.0928317E0,1.0596088E0,-3.8883793E-1,1.8583822E0,3.3596466E0,-8.162015E-1,-7.272769E-2,2.448079E0,3.5427344E-1,-9.644239E-1,1.1172009E-1,5.5202526E-1,-1.01407245E-1,-5.6629604E-1,1.4945567E0,-1.921876E0,-6.628513E-4,2.1347842E0,1.5122815E0,-1.3459319E-1,-2.3817275E0,-1.2454769E-1],"categories":[],"categories_nodes":[],"categories_segments":[],"categories_sizes":[],"default_left":[0,0,0,0,0,0,0,0,0,0,0,0,0,0,0,0,0,0,0,0,0,0,0,0,0,0,0,0,0,0,0,0,0,0,0,0,0,0,0,0,0,0,0,0,0,0,0,0,0,0,0,0,0,0,0,0,0,0,0,0,0,0,0,0,0,0,0,0,0,0,0,0,0,0,0,0,0,0,0,0,0,0,0,0,0,0,0,0,0,0,0,0,0,0,0,0,0,0,0,0,0,0,0,0,0,0,0,0,0],"id":9,"left_children":[1,3,5,7,9,11,13,15,17,19,21,23,25,-1,27,29,31,33,35,37,39,41,43,45,47,49,51,53,55,57,59,61,63,65,67,69,71,73,75,77,79,81,83,85,87,89,91,93,95,-1,-1,97,99,101,103,105,107,-1,-1,-1,-1,-1,-1,-1,-1,-1,-1,-1,-1,-1,-1,-1,-1,-1,-1,-1,-1,-1,-1,-1,-1,-1,-1,-1,-1,-1,-1,-1,-1,-1,-1,-1,-1,-1,-1,-1,-1,-1,-1,-1,-1,-1,-1,-1,-1,-1,-1,-1,-1],"loss_changes":[4.436293E2,2.6381265E2,3.8240222E2,2.4591295E2,2.1291135E2,4.1811133E2,2.9023917E2,7.510218E2,4.9437442E2,3.578073E2,2.0345547E2,4.2478552E2,5.095822E2,0E0,3.0021063E2,5.6106616E2,4.3585187E2,3.756756E2,3.558331E2,2.3036267E2,1.978164E2,2.5097606E2,1.6895117E2,6.8428345E2,5.071261E2,2.0231812E2,1.5869326E1,5.237092E2,4.2185077E2,6.1434015E2,8.322499E2,3.702059E2,3.8765887E2,1.701631E2,5.202178E2,4.064126E2,1.5211508E2,2.9736324E1,2.2472961E1,1.2026936E2,8.851825E1,1.1815878E2,3.852848E2,2.4646027E2,2.1794812E2,5.0659702E2,2.4231274E2,6.5465247E2,5.780591E2,0E0,0E0,6.223707E-1,7.5013685E-1,2.0615717E2,1.6407428E2,3.2821323E2,2.3570499E2,0E0,0E0,0E0,0E0,0E0,0E0,0E0,0E0,0E0,0E0,0E0,0E0,0E0,0E0,0E0,0E0,0E0,0E0,0E0,0E0,0E0,0E0,0E0,0E0,0E0,0E0,0E0,0E0,0E0,0E0,0E0,0E0,0E0,0E0,0E0,0E0,0E0,0E0,0E0,0E0,0E0,0E0,0E0,0E0,0E0,0E0,0E0,0E0,0E0,0E0,0E0,0E0],"parents":[2147483647,0,0,1,1,2,2,3,3,4,4,5,5,6,6,7,7,8,8,9,9,10,10,11,11,12,12,14,14,15,15,16,16,17,17,18,18,19,19,20,20,21,21,22,22,23,23,24,24,25,25,26,26,27,27,28,28,29,29,30,30,31,31,32,32,33,33,34,34,35,35,36,36,37,37,38,38,39,39,40,40,41,41,42,42,43,43,44,44,45,45,46,46,47,47,48,48,51,51,52,52,53,53,54,54,55,55,56,56],"right_children":[2,4,6,8,10,12,14,16,18,20,22,24,26,-1,28,30,32,34,36,38,40,42,44,46,48,50,52,54,56,58,60,62,64,66,68,70,72,74,76,78,80,82,84,86,88,90,92,94,96,-1,-1,98,100,102,104,106,108,-1,-1,-1,-1,-1,-1,-1,-1,-1,-1,-1,-1,-1,-1,-1,-1,-1,-1,-1,-1,-1,-1,-1,-1,-1,-1,-1,-1,-1,-1,-1,-1,-1,-1,-1,-1,-1,-1,-1,-1,-1,-1,-1,-1,-1,-1,-1,-1,-1,-1,-1,-1],"split_conditions":[3.9666668E1,2.7004987E2,2.3725418E2,1.2514417E1,-4.860584E0,2.2552817E2,2.380046E2,7.4E0,1.1521347E2,3.10252E2,3.3666668E1,4.2666668E1,6.1894164E0,-3.0579727E0,1.5893093E1,1.0787098E2,1.5986595E1,8.66021E1,1.4493581E1,-8.420999E0,-5.060583E0,3.2666668E1,4E-1,1.7093721E2,1.2864649E1,4.3E1,1.753525E1,2.8215475E2,3.033629E2,4.3498325E0,1.8080463E2,8.099999E0,3.3161064E1,2E-1,1.4885249E1,1.314076E2,5.0999994E0,2.2666666E1,1.5408671E1,3.371451E2,2.9666666E1,3.402948E2,1.6299694E1,1.0163227E1,3.6666668E1,1.2972751E1,1.7424831E1,1.1165805E1,1.7235863E2,1.5476818E-1,4.9901175E0,4.4E1,4.7E1,9.107359E0,1.8724834E1,2.226477E1,3.228236E2,1.5080586E-1,-8.8207835E-1,9.893647E-1,1.6260818E-1,-2.0774853E0,1.7700254E0,-1.1825708E0,1.5921011E0,-3.5599756E-1,4.5149833E-1,-7.2081846E-1,1.6920966E0,-3.1983185E0,-6.236445E-1,-2.0539358E-1,4.0554258E-1,9.812799E-1,-2.3351747E-1,-6.1610734E-1,-1.5296217E0,9.8725003E-1,-3.8227025E-1,3.7836535E0,2.4955216E-1,-3.281526E-1,5.62766E-2,2.5619464E0,-9.508782E-1,9.7766024E-1,-1.6556506E0,-1.0928317E0,1.0596088E0,-3.8883793E-1,1.8583822E0,3.3596466E0,-8.162015E-1,-7.272769E-2,2.448079E0,3.5427344E-1,-9.644239E-1,1.1172009E-1,5.5202526E-1,-1.01407245E-1,-5.6629604E-1,1.4945567E0,-1.921876E0,-6.628513E-4,2.1347842E0,1.5122815E0,-1.3459319E-1,-2.3817275E0,-1.2454769E-1],"split_indices":[0,4,4,1,1,4,4,2,4,4,0,0,1,0,3,4,3,4,1,1,1,0,2,4,3,0,1,4,4,1,4,2,3,2,1,4,2,0,3,4,0,4,3,3,0,1,1,3,4,0,0,0,0,3,1,3,4,0,0,0,0,0,0,0,0,0,0,0,0,0,0,0,0,0,0,0,0,0,0,0,0,0,0,0,0,0,0,0,0,0,0,0,0,0,0,0,0,0,0,0,0,0,0,0,0,0,0,0,0],"split_type":[0,0,0,0,0,0,0,0,0,0,0,0,0,0,0,0,0,0,0,0,0,0,0,0,0,0,0,0,0,0,0,0,0,0,0,0,0,0,0,0,0,0,0,0,0,0,0,0,0,0,0,0,0,0,0,0,0,0,0,0,0,0,0,0,0,0,0,0,0,0,0,0,0,0,0,0,0,0,0,0,0,0,0,0,0,0,0,0,0,0,0,0,0,0,0,0,0,0,0,0,0,0,0,0,0,0,0,0,0],"sum_hessian":[2.485E3,2.14E3,3.45E2,1.574E3,5.66E2,2.39E2,1.06E2,9.57E2,6.17E2,5.6E1,5.1E2,2.29E2,1E1,2E0,1.04E2,8.74E2,8.3E1,1.34E2,4.83E2,2.3E1,3.3E1,4.68E2,4.2E1,4.9E1,1.8E2,5E0,5E0,4.1E1,6.3E1,2.28E2,6.46E2,1.1E1,7.2E1,9.2E1,4.2E1,9.1E1,3.92E2,8E0,1.5E1,3E1,3E0,4.58E2,1E1,2.7E1,1.5E1,3.6E1,1.3E1,3.6E1,1.44E2,1E0,4E0,3E0,2E0,2.1E1,2E1,4.4E1,1.9E1,1.5E2,7.8E1,1.39E2,5.07E2,2E0,9E0,6.8E1,4E0,4.7E1,4.5E1,1E1,3.2E1,5E0,8.6E1,3.52E2,4E1,6E0,2E0,6E0,9E0,2.3E1,7E0,2E0,1E0,3.69E2,8.9E1,6E0,4E0,3E0,2.4E1,8E0,7E0,2.2E1,1.4E1,1.2E1,1E0,1.8E1,1.8E1,1.03E2,4.1E1,1E0,2E0,1E0,1E0,1E0,2E1,1.7E1,3E0,2.6E1,1.8E1,5E0,1.4E1],"tree_param":{"num_deleted":"0","num_feature":"5","num_nodes":"109","size_leaf_vector":"1"}},{"base_weights":[2.6362982E-2,-1.8077454E-1,5.457765E-1,-2.1798185E-1,2.7989528E0,-2.2593248E0,6.6442865E-1,1.0492285E0,-3.1568438E-1,8.4963554E-1,5.5202293E0,2.053361E0,-2.8289104E0,9.797937E0,5.8237916E-1,7.788147E-1,6.327704E0,-2.020347E-1,-1.3821254E0,2.487517E0,-6.897154E-1,-1.1376469E0,7.1582975E0,-1.6585976E0,-6.1029058E0,-2.389703E0,1.6489183E1,-2.7974107E0,7.1646845E-1,1.9334834E0,-3.1490391E-1,3.8470576E0,7.391506E-1,-3.0751324E-1,1.5063685E0,-2.7104325E0,-5.0986326E-1,6.8220425E-1,1.1012853E0,-1.87994E0,1.920639E0,2.5796237E0,1.0704489E0,-2.8675637E0,3.0253997E0,-2.4999642E0,-2.3468719E0,-9.915963E-1,-8.3770186E-2,5.720592E0,1.312622E0,1.034195E0,-5.2568016E0,1.4548936E0,1.6566995E-1,1.4507924E-1,1.304984E0,-1.561771E0,4.923325E-3,-2.696581E-1,-4.466831E-2,2.7175663E0,3.0824974E-1,-1.2015187E0,2.0301628E-1,2.4365208E-1,-1.1248591E0,-4.784157E-1,5.918255E-1,7.002125E-2,-1.2213256E0,7.219723E-1,1.423153E-1,-1.2459224E0,8.00998E-1,1.2879589E0,-3.068679E-1,-8.7234825E-1,-9.96008E-2,7.9194695E-1,-1.2382263E0,-2.558763E0,-5.2917147E-1,-6.952764E-3,7.4474204E-1,-4.7658324E-1,1.682105E-1],"categories":[],"categories_nodes":[],"categories_segments":[],"categories_sizes":[],"default_left":[0,0,0,0,0,0,0,0,0,0,0,0,0,0,0,0,0,0,0,0,0,0,0,0,0,0,0,0,0,0,0,0,0,0,0,0,0,0,0,0,0,0,0,0,0,0,0,0,0,0,0,0,0,0,0,0,0,0,0,0,0,0,0,0,0,0,0,0,0,0,0,0,0,0,0,0,0,0,0,0,0,0,0,0,0,0,0],"id":10,"left_children":[1,3,5,7,9,11,13,15,17,19,21,-1,23,25,27,29,31,33,35,37,39,-1,41,43,45,47,49,51,53,55,57,-1,-1,59,61,63,65,67,-1,69,71,-1,-1,73,75,-1,77,-1,-1,-1,-1,79,81,83,85,-1,-1,-1,-1,-1,-1,-1,-1,-1,-1,-1,-1,-1,-1,-1,-1,-1,-1,-1,-1,-1,-1,-1,-1,-1,-1,-1,-1,-1,-1,-1,-1],"loss_changes":[2.6756744E2,1.9773274E2,2.3747868E2,2.1786479E2,1.1201172E2,1.6973999E2,5.0463538E2,1.7492091E2,1.9752031E2,3.7013523E1,1.6443423E2,0E0,9.7162476E1,5.287072E2,3.0836322E2,1.5341766E2,1.1899895E2,2.6643823E2,1.8052325E2,1.2450943E1,2.8465952E1,0E0,1.0689514E1,1.3325699E2,3.9082794E1,4.8741894E0,4.155481E1,2.5044534E2,2.6453598E2,2.046085E2,1.0217451E2,0E0,0E0,1.3034027E2,3.0171225E2,2.745871E2,4.1420935E2,1.4899895E1,0E0,2.8734074E1,9.667177E-1,0E0,0E0,1.3922328E2,3.0053535E1,0E0,3.5556011E0,0E0,0E0,0E0,0E0,1.0205965E2,1.6783826E2,4.2229352E2,2.600714E2,0E0,0E0,0E0,0E0,0E0,0E0,0E0,0E0,0E0,0E0,0E0,0E0,0E0,0E0,0E0,0E0,0E0,0E0,0E0,0E0,0E0,0E0,0E0,0E0,0E0,0E0,0E0,0E0,0E0,0E0,0E0,0E0],"parents":[2147483647,0,0,1,1,2,2,3,3,4,4,5,5,6,6,7,7,8,8,9,9,10,10,12,12,13,13,14,14,15,15,16,16,17,17,18,18,19,19,20,20,22,22,23,23,24,24,25,25,26,26,27,27,28,28,29,29,30,30,33,33,34,34,35,35,36,36,37,37,39,39,40,40,43,43,44,44,46,46,51,51,52,52,53,53,54,54],"right_children":[2,4,6,8,10,12,14,16,18,20,22,-1,24,26,28,30,32,34,36,38,40,-1,42,44,46,48,50,52,54,56,58,-1,-1,60,62,64,66,68,-1,70,72,-1,-1,74,76,-1,78,-1,-1,-1,-1,80,82,84,86,-1,-1,-1,-1,-1,-1,-1,-1,-1,-1,-1,-1,-1,-1,-1,-1,-1,-1,-1,-1,-1,-1,-1,-1,-1,-1,-1,-1,-1,-1,-1,-1],"split_conditions":[3E1,2.2072748E1,2.509263E1,1.1013882E1,1.9223994E2,-7.7709994E0,3.061664E1,1.9283167E1,2.7333334E1,1.2151397E2,1.0829958E1,2.053361E0,1.2753998E1,-3.1397495E0,5.27217E1,6.987333E0,1.9589415E1,2.6E1,1.6746773E1,1.3479583E1,1.8565843E2,-1.1376469E0,2.0881583E2,4.4789996E0,1.4408165E1,3.5666668E1,3.2333332E1,1.584E1,1.8891493E2,3E-1,7.8956666E0,3.8470576E0,7.391506E-1,1.3333333E1,-2.3793333E0,1.9E0,1.8E0,2.2666666E1,1.1012853E0,1.7334746E2,2.1333334E1,2.5796237E0,1.0704489E0,1.0000001E0,2.0674158E1,-2.4999642E0,3.4666668E1,-9.915963E-1,-8.3770186E-2,5.720592E0,1.312622E0,4.7720634E1,3.8333332E1,1.4458382E1,2.1331647E2,1.4507924E-1,1.304984E0,-1.561771E0,4.923325E-3,-2.696581E-1,-4.466831E-2,2.7175663E0,3.0824974E-1,-1.2015187E0,2.0301628E-1,2.4365208E-1,-1.1248591E0,-4.784157E-1,5.918255E-1,7.002125E-2,-1.2213256E0,7.219723E-1,1.423153E-1,-1.2459224E0,8.00998E-1,1.2879589E0,-3.068679E-1,-8.7234825E-1,-9.96008E-2,7.9194695E-1,-1.2382263E0,-2.558763E0,-5.2917147E-1,-6.952764E-3,7.4474204E-1,-4.7658324E-1,1.682105E-1],"split_indices":[0,1,4,3,4,1,4,1,0,4,3,0,1,1,4,1,1,0,3,3,4,0,4,1,1,0,0,3,4,2,1,0,0,0,1,2,2,0,0,4,0,0,0,2,3,0,0,0,0,0,0,4,0,3,4,0,0,0,0,0,0,0,0,0,0,0,0,0,0,0,0,0,0,0,0,0,0,0,0,0,0,0,0,0,0,0,0],"split_type":[0,0,0,0,0,0,0,0,0,0,0,0,0,0,0,0,0,0,0,0,0,0,0,0,0,0,0,0,0,0,0,0,0,0,0,0,0,0,0,0,0,0,0,0,0,0,0,0,0,0,0,0,0,0,0,0,0,0,0,0,0,0,0,0,0,0,0,0,0,0,0,0,0,0,0,0,0,0,0,0,0,0,0,0,0,0,0],"sum_hessian":[2.485E3,1.777E3,7.08E2,1.756E3,2.1E1,2.8E1,6.8E2,1.25E2,1.631E3,1.3E1,8E0,1E0,2.7E1,5E0,6.75E2,1.2E2,5E0,1.475E3,1.56E2,6E0,7E0,1E0,7E0,2.1E1,6E0,2E0,3E0,2.5E1,6.5E2,5.8E1,6.2E1,1E0,4E0,1.39E3,8.5E1,6.1E1,9.5E1,3E0,3E0,5E0,2E0,4E0,3E0,1.7E1,4E0,3E0,3E0,1E0,1E0,2E0,1E0,1E1,1.5E1,2.77E2,3.73E2,3.7E1,2.1E1,3E0,5.9E1,2.93E2,1.097E3,4E0,8.1E1,4.4E1,1.7E1,6.8E1,2.7E1,1E0,2E0,3E0,2E0,1E0,1E0,1.4E1,3E0,3E0,1E0,2E0,1E0,8E0,2E0,7E0,8E0,1.14E2,1.63E2,6.8E1,3.05E2],"tree_param":{"num_deleted":"0","num_feature":"5","num_nodes":"87","size_leaf_vector":"1"}},{"base_weights":[2.2766992E-2,-2.195706E-2,1.5443239E0,-5.2534472E-2,2.2577019E0,1.0413018E0,3.930741E0,6.9343543E-1,-1.496871E-1,2.9375297E-1,4.761797E0,1.987778E0,-8.1109583E-1,6.9562917E0,7.758773E-1,1.6799222E0,-5.574859E-1,4.198124E-2,-5.7960683E-1,-1.3353289E0,4.045985E0,-5.6496337E-2,5.1570616E0,7.588262E-1,3.9854426E0,-2.3388414E0,7.9038584E-1,8.907061E0,-4.1963255E-1,-4.5799676E-1,7.7211255E-1,1.0446314E0,3.8914008E0,-8.7474006E-1,4.072728E0,-4.077307E-1,5.169344E-1,-7.737066E-1,1.8748908E0,-2.384558E0,4.6106943E-1,-9.6699977E-1,6.144515E0,6.378459E0,1.9271336E0,5.264181E0,-5.6455266E-1,8.565817E0,1.5411412E0,2.0910263E0,-3.5555928E0,1.6607826E0,-3.4440124E-1,3.4102708E-1,3.169634E0,2.2368431E-2,-3.5691863E-1,2.6428622E-1,3.1028862E0,5.5490196E-1,2.581974E0,-4.2157716E-1,4.700618E-1,-8.500758E-2,1.420652E0,-1.399043E-1,3.1966715E0,6.06272E-1,3.027998E-2,9.271944E-2,-3.7023082E-1,1.3389808E0,-9.107961E-2,-1.2643121E0,-2.3349153E-2,-3.1514552E-1,4.4384038E-1,4.1629374E-1,2.0960464E0,4.3624794E-1,2.043668E0,8.0924034E-2,6.8221307E-1,2.0251608E0,-3.251387E-1,-7.5320554E-1,1.1059144E0,3.656053E0,6.2685585E-1,-7.5080884E-1,1.0111252E0,9.123436E-1,2.861824E-2,-4.7467136E-1,-1.6880182E0,7.6523215E-2,9.0081555E-1,-6.549073E-2,1.1165715E-1],"categories":[],"categories_nodes":[],"categories_segments":[],"categories_sizes":[],"default_left":[0,0,0,0,0,0,0,0,0,0,0,0,0,0,0,0,0,0,0,0,0,0,0,0,0,0,0,0,0,0,0,0,0,0,0,0,0,0,0,0,0,0,0,0,0,0,0,0,0,0,0,0,0,0,0,0,0,0,0,0,0,0,0,0,0,0,0,0,0,0,0,0,0,0,0,0,0,0,0,0,0,0,0,0,0,0,0,0,0,0,0,0,0,0,0,0,0,0,0],"id":11,"left_children":[1,3,5,7,9,11,13,15,17,19,21,23,25,27,29,31,33,35,37,39,41,-1,43,45,47,49,51,53,-1,55,-1,57,59,61,63,65,67,69,71,73,75,-1,77,79,81,83,85,87,89,91,93,95,-1,-1,-1,97,-1,-1,-1,-1,-1,-1,-1,-1,-1,-1,-1,-1,-1,-1,-1,-1,-1,-1,-1,-1,-1,-1,-1,-1,-1,-1,-1,-1,-1,-1,-1,-1,-1,-1,-1,-1,-1,-1,-1,-1,-1,-1,-1],"loss_changes":[1.6920668E2,1.6852849E2,8.1136765E1,1.7295174E2,1.559745E2,1.0680728E2,1.091452E2,3.4029126E2,1.7397496E2,1.215439E2,2.8363617E1,9.517711E1,5.322838E1,1.1025177E2,1.670683E1,2.122945E2,1.8277505E2,3.1226886E2,3.1159845E2,2.7487112E1,1.11335106E2,0E0,3.8993195E1,1.5799149E2,1.5473613E2,6.6725365E1,2.0465435E1,5.24205E1,0E0,1.7841052E0,0E0,1.750412E2,3.1140253E2,1.5116335E2,2.4438797E1,4.9199042E2,4.4463605E2,3.0147766E2,2.7201532E2,3.7659973E1,1.0790347E1,0E0,1.0338455E1,9.317932E0,2.261406E0,6.392827E1,1.8298581E2,9.178952E1,8.980537E1,5.398156E0,2.788092E1,1.4325005E1,0E0,0E0,0E0,4.1801795E-1,0E0,0E0,0E0,0E0,0E0,0E0,0E0,0E0,0E0,0E0,0E0,0E0,0E0,0E0,0E0,0E0,0E0,0E0,0E0,0E0,0E0,0E0,0E0,0E0,0E0,0E0,0E0,0E0,0E0,0E0,0E0,0E0,0E0,0E0,0E0,0E0,0E0,0E0,0E0,0E0,0E0,0E0,0E0],"parents":[2147483647,0,0,1,1,2,2,3,3,4,4,5,5,6,6,7,7,8,8,9,9,10,10,11,11,12,12,13,13,14,14,15,15,16,16,17,17,18,18,19,19,20,20,22,22,23,23,24,24,25,25,26,26,27,27,29,29,31,31,32,32,33,33,34,34,35,35,36,36,37,37,38,38,39,39,40,40,42,42,43,43,44,44,45,45,46,46,47,47,48,48,49,49,50,50,51,51,55,55],"right_children":[2,4,6,8,10,12,14,16,18,20,22,24,26,28,30,32,34,36,38,40,42,-1,44,46,48,50,52,54,-1,56,-1,58,60,62,64,66,68,70,72,74,76,-1,78,80,82,84,86,88,90,92,94,96,-1,-1,-1,98,-1,-1,-1,-1,-1,-1,-1,-1,-1,-1,-1,-1,-1,-1,-1,-1,-1,-1,-1,-1,-1,-1,-1,-1,-1,-1,-1,-1,-1,-1,-1,-1,-1,-1,-1,-1,-1,-1,-1,-1,-1,-1,-1],"split_conditions":[5.5E1,2.263317E1,1.3572749E1,1.1885453E1,1.4799459E1,1.9164719E1,1.4718583E1,9.81025E0,1.4000001E0,1.9976585E2,1.4E1,1.5484185E1,2.2552817E2,8.2E1,5E-1,3.5E1,1.12E1,1.7283749E1,1.7868586E1,2.4068586E1,1.0829958E1,-5.6496337E-2,3.6666668E1,5.6666668E1,1.6199999E1,3.7275013E-1,2.7553526E1,5.7E1,-4.1963255E-1,1.7072504E1,7.7211255E-1,9.658166E0,1.1165805E1,1.1542478E1,1.4101917E1,1.4E0,1.9861992E2,1.5711313E2,2.4666666E1,3.6666668E1,1.318308E1,-9.6699977E-1,2.0666666E1,1.5E1,4.0333332E1,4.6E0,6.7E1,1.1308167E1,6.0666668E1,5.5666668E1,2.196E1,2.2725668E1,-3.4440124E-1,3.4102708E-1,3.169634E0,1.7797752E1,-3.5691863E-1,2.6428622E-1,3.1028862E0,5.5490196E-1,2.581974E0,-4.2157716E-1,4.700618E-1,-8.500758E-2,1.420652E0,-1.399043E-1,3.1966715E0,6.06272E-1,3.027998E-2,9.271944E-2,-3.7023082E-1,1.3389808E0,-9.107961E-2,-1.2643121E0,-2.3349153E-2,-3.1514552E-1,4.4384038E-1,4.1629374E-1,2.0960464E0,4.3624794E-1,2.043668E0,8.0924034E-2,6.8221307E-1,2.0251608E0,-3.251387E-1,-7.5320554E-1,1.1059144E0,3.656053E0,6.2685585E-1,-7.5080884E-1,1.0111252E0,9.123436E-1,2.861824E-2,-4.7467136E-1,-1.6880182E0,7.6523215E-2,9.0081555E-1,-6.549073E-2,1.1165715E-1],"split_indices":[0,1,1,3,3,3,1,1,2,4,0,3,4,0,2,0,2,3,1,1,3,0,0,0,3,1,3,0,0,3,0,1,3,3,1,2,4,4,0,0,3,0,0,0,0,2,0,1,0,0,3,3,0,0,0,1,0,0,0,0,0,0,0,0,0,0,0,0,0,0,0,0,0,0,0,0,0,0,0,0,0,0,0,0,0,0,0,0,0,0,0,0,0,0,0,0,0,0,0],"split_type":[0,0,0,0,0,0,0,0,0,0,0,0,0,0,0,0,0,0,0,0,0,0,0,0,0,0,0,0,0,0,0,0,0,0,0,0,0,0,0,0,0,0,0,0,0,0,0,0,0,0,0,0,0,0,0,0,0,0,0,0,0,0,0,0,0,0,0,0,0,0,0,0,0,0,0,0,0,0,0,0,0,0,0,0,0,0,0,0,0,0,0,0,0,0,0,0,0,0,0],"sum_hessian":[2.485E3,2.415E3,7E1,2.384E3,3.1E1,5.9E1,1.1E1,2.74E2,2.11E3,1.8E1,1.3E1,3.9E1,2E1,5E0,6E0,1.53E2,1.21E2,1.46E3,6.5E2,1.3E1,5E0,1E0,1.2E1,2.5E1,1.4E1,1E1,1E1,4E0,1E0,4E0,2E0,1.2E2,3.3E1,1.14E2,7E0,7.5E2,7.1E2,6.03E2,4.7E1,8E0,5E0,1E0,4E0,8E0,4E0,5E0,2E1,4E0,1E1,2E0,8E0,7E0,3E0,1E0,3E0,3E0,1E0,1.19E2,1E0,2.4E1,9E0,9.4E1,2E1,1E0,6E0,7.47E2,3E0,1.53E2,5.57E2,1.8E2,4.23E2,2.1E1,2.6E1,4E0,4E0,2E0,3E0,1E0,3E0,1E0,7E0,1E0,3E0,4E0,1E0,1.4E1,6E0,2E0,2E0,3E0,7E0,1E0,1E0,5E0,3E0,4E0,3E0,2E0,1E0],"tree_param":{"num_deleted":"0","num_feature":"5","num_nodes":"99","size_leaf_vector":"1"}},{"base_weights":[2.6268575E-2,-1.3151692E0,8.1285164E-2,-2.627929E0,-5.1053554E-1,2.6533608E0,4.7450647E-2,-9.3547E-1,-3.4028907E0,2.7132455E-1,-2.5961254E0,3.2321444E-1,6.3158245E0,1.3722964E-1,-6.306177E-1,4.2982122E-1,-1.2522154E0,-3.7383244E0,6.9712776E-1,-9.8551816E-1,1.9544959E0,-3.2552335E0,3.597839E-1,-2.5571814E0,2.4565768E0,-2.822523E-1,1.1069058E1,8.6512506E-2,5.366912E0,-3.8016832E-1,-5.290444E0,-1.8386294E0,3.8027E-1,-4.0747213E0,5.998215E-1,-1.6889197E0,3.4812708E0,4.034096E0,2.3192143E-1,-1.597083E0,-2.4668698E0,-3.730813E-1,7.754923E-1,1.7420282E0,-1.4991373E0,3.8846893E0,-1.3708203E0,1.2982244E0,-2.0696685E0,1.3398714E1,1.0489838E0,-2.7022682E-2,8.446397E-1,3.4975097E0,3.5910432E0,-5.0688213E-1,5.131888E0,-6.3321366E0,-1.1031783E0,6.586933E-2,-6.370048E-1,-1.9556771E-1,5.215136E-1,-1.4492049E0,-4.9701357E-1,1.5281841E-1,-1.2999709E0,-1.2256966E-1,2.272617E0,2.7069226E-1,1.6348817E0,7.4150455E-1,-5.1630145E-1,-8.58114E-1,2.7926102E-1,7.705383E-2,9.2963624E-1,6.8916315E-1,1.888173E0,6.939497E-1,-1.0109613E0,-3.9920047E-2,-9.9491423E-1,4.456161E0,1.1367142E0,-4.6076378E-4,-2.2903733E0,-9.289168E-2,5.546304E-1,2.027216E0,-4.529365E-2,-2.9000252E-2,-8.220406E-1,1.8278972E0,4.895611E-2,-1.7526484E-1,-2.054552E0,-5.1358414E-1,-9.888192E-2],"categories":[],"categories_nodes":[],"categories_segments":[],"categories_sizes":[],"default_left":[0,0,0,0,0,0,0,0,0,0,0,0,0,0,0,0,0,0,0,0,0,0,0,0,0,0,0,0,0,0,0,0,0,0,0,0,0,0,0,0,0,0,0,0,0,0,0,0,0,0,0,0,0,0,0,0,0,0,0,0,0,0,0,0,0,0,0,0,0,0,0,0,0,0,0,0,0,0,0,0,0,0,0,0,0,0,0,0,0,0,0,0,0,0,0,0,0,0,0],"id":12,"left_children":[1,3,5,7,9,11,13,15,17,19,21,23,25,27,29,-1,31,33,-1,35,37,39,41,43,45,47,49,51,53,55,57,59,61,63,-1,65,67,69,71,-1,73,-1,-1,75,-1,77,79,-1,81,83,-1,85,87,89,-1,91,93,95,97,-1,-1,-1,-1,-1,-1,-1,-1,-1,-1,-1,-1,-1,-1,-1,-1,-1,-1,-1,-1,-1,-1,-1,-1,-1,-1,-1,-1,-1,-1,-1,-1,-1,-1,-1,-1,-1,-1,-1,-1],"loss_changes":[1.8357701E2,1.02174835E2,2.0777667E2,4.5345535E1,1.0180405E2,2.62515E2,1.4369371E2,1.154564E1,5.6709747E1,9.923834E1,3.429167E1,1.2918048E2,3.7947073E2,5.5228436E2,3.2009473E2,0E0,1.2186922E1,5.4470764E1,0E0,9.0712135E1,7.0709724E1,9.696182E0,1.7486061E1,1.0311358E2,7.091664E1,5.8392677E1,7.6638245E1,1.7776587E2,2.0501617E2,1.8629459E2,5.4080322E1,5.740288E0,6.7403893E0,3.4039154E1,0E0,1.4172028E2,6.679686E1,3.498047E1,5.6742825E1,0E0,1.8707184E1,0E0,0E0,7.264226E0,0E0,1.9962845E1,3.7252964E1,0E0,1.1630623E1,1.3635742E1,0E0,3.484127E2,3.123552E2,2.0321179E2,0E0,2.3609235E2,2.7658295E1,2.8647583E1,1.3194366E0,0E0,0E0,0E0,0E0,0E0,0E0,0E0,0E0,0E0,0E0,0E0,0E0,0E0,0E0,0E0,0E0,0E0,0E0,0E0,0E0,0E0,0E0,0E0,0E0,0E0,0E0,0E0,0E0,0E0,0E0,0E0,0E0,0E0,0E0,0E0,0E0,0E0,0E0,0E0,0E0],"parents":[2147483647,0,0,1,1,2,2,3,3,4,4,5,5,6,6,7,7,8,8,9,9,10,10,11,11,12,12,13,13,14,14,16,16,17,17,19,19,20,20,21,21,22,22,23,23,24,24,25,25,26,26,27,27,28,28,29,29,30,30,31,31,32,32,33,33,35,35,36,36,37,37,38,38,40,40,43,43,45,45,46,46,48,48,49,49,51,51,52,52,53,53,55,55,56,56,57,57,58,58],"right_children":[2,4,6,8,10,12,14,16,18,20,22,24,26,28,30,-1,32,34,-1,36,38,40,42,44,46,48,50,52,54,56,58,60,62,64,-1,66,68,70,72,-1,74,-1,-1,76,-1,78,80,-1,82,84,-1,86,88,90,-1,92,94,96,98,-1,-1,-1,-1,-1,-1,-1,-1,-1,-1,-1,-1,-1,-1,-1,-1,-1,-1,-1,-1,-1,-1,-1,-1,-1,-1,-1,-1,-1,-1,-1,-1,-1,-1,-1,-1,-1,-1,-1,-1],"split_conditions":[2.509263E1,1E-1,3.4392643E1,1.2303366E1,2.1129885E1,2.5E1,2.4315327E1,1.1E1,1.5122749E1,1.7309975E1,1.37E1,1E-1,7.748334E-1,2.3993399E1,1.2E1,4.2982122E-1,1.1808878E1,4.5333332E1,6.9712776E-1,5.5999994E0,1.886139E1,1.5E1,3.4666668E1,2.6718569E1,4.8999996E0,2.6333334E1,4.3498325E0,4.1333332E1,4.4E0,1.915608E1,2.0737569E2,8.311245E0,3.6666668E1,2.049156E1,5.998215E-1,1.3608762E1,1.5315873E1,1.2666667E1,-1.6105833E0,-1.597083E0,7.4E0,-3.730813E-1,7.754923E-1,2.2666666E1,-1.4991373E0,1.4493581E1,1.1E1,1.2982244E0,1.6199999E1,3.2333332E1,1.0489838E0,4.1E1,1.5509274E1,4E-1,3.5910432E0,3.3666668E1,2.1496852E2,1.1666667E1,1.0333333E1,6.586933E-2,-6.370048E-1,-1.9556771E-1,5.215136E-1,-1.4492049E0,-4.9701357E-1,1.5281841E-1,-1.2999709E0,-1.2256966E-1,2.272617E0,2.7069226E-1,1.6348817E0,7.4150455E-1,-5.1630145E-1,-8.58114E-1,2.7926102E-1,7.705383E-2,9.2963624E-1,6.8916315E-1,1.888173E0,6.939497E-1,-1.0109613E0,-3.9920047E-2,-9.9491423E-1,4.456161E0,1.1367142E0,-4.6076378E-4,-2.2903733E0,-9.289168E-2,5.546304E-1,2.027216E0,-4.529365E-2,-2.9000252E-2,-8.220406E-1,1.8278972E0,4.895611E-2,-1.7526484E-1,-2.054552E0,-5.1358414E-1,-9.888192E-2],"split_indices":[4,2,4,3,3,0,3,0,1,3,2,2,1,3,2,0,3,0,0,2,3,0,0,4,2,0,1,0,2,1,4,3,0,3,0,3,3,0,1,0,2,0,0,0,0,1,0,0,3,0,0,0,3,2,0,0,4,0,0,0,0,0,0,0,0,0,0,0,0,0,0,0,0,0,0,0,0,0,0,0,0,0,0,0,0,0,0,0,0,0,0,0,0,0,0,0,0,0,0],"split_type":[0,0,0,0,0,0,0,0,0,0,0,0,0,0,0,0,0,0,0,0,0,0,0,0,0,0,0,0,0,0,0,0,0,0,0,0,0,0,0,0,0,0,0,0,0,0,0,0,0,0,0,0,0,0,0,0,0,0,0,0,0,0,0,0,0,0,0,0,0,0,0,0,0,0,0,0,0,0,0,0,0,0,0,0,0,0,0,0,0,0,0,0,0,0,0,0,0,0,0],"sum_hessian":[2.485E3,9.7E1,2.388E3,3.6E1,6.1E1,3E1,2.358E3,1.2E1,2.4E1,4.5E1,1.6E1,1.9E1,1.1E1,2.083E3,2.75E2,1E0,1.1E1,2.3E1,1E0,2.6E1,1.9E1,1.3E1,3E0,8E0,1.1E1,5E0,6E0,2.064E3,1.9E1,2.62E2,1.3E1,8E0,3E0,2.2E1,1E0,2.3E1,3E0,8E0,1.1E1,2E0,1.1E1,2E0,1E0,3E0,5E0,8E0,3E0,1E0,4E0,4E0,2E0,1.796E3,2.68E2,1.6E1,3E0,2.57E2,5E0,1E1,3E0,1E0,7E0,2E0,1E0,1.6E1,6E0,1.3E1,1E1,2E0,1E0,3E0,5E0,5E0,6E0,1E1,1E0,2E0,1E0,6E0,2E0,1E0,2E0,2E0,2E0,3E0,1E0,1.791E3,5E0,1.25E2,1.43E2,8E0,8E0,2.18E2,3.9E1,4E0,1E0,1E0,9E0,1E0,2E0],"tree_param":{"num_deleted":"0","num_feature":"5","num_nodes":"99","size_leaf_vector":"1"}},{"base_weights":[2.3012716E-2,-1.4619833E0,5.7211302E-2,1.0640258E0,-1.7131727E0,1.9318769E0,2.7430808E-2,-2.2734475E0,-1.0489451E-1,5.7342815E0,5.540865E-1,2.3823655E-1,-1.8427992E-1,-5.2228904E-1,-2.6949158E0,-7.15002E-1,1.7516515E0,2.8952398E0,1.5148035E0,-3.6643841E0,2.06289E0,-2.205938E-1,6.2292385E-1,-2.895581E-1,1.7776055E0,-3.9828306E-1,8.1626487E-1,-1.2986687E0,-3.1848094E0,1.3218675E0,-1.5408326E0,1.1771196E0,-2.8028584E-1,2.0291664E-1,6.3832664E-1,-3.2327333E-1,-4.724209E0,8.534831E-1,4.5325503E0,-7.6030964E-1,4.8037905E-1,1.7470285E0,-1.7911649E-1,1.3408023E0,-3.930927E-1,6.5164095E-1,5.5110836E0,-3.48769E-1,5.590186E-1,-8.823936E-1,8.599358E-2,-1.0056055E0,7.406759E-2,-2.5404882E-1,6.9811285E-1,-6.275202E-1,-9.878176E-2,-1.8119703E-1,5.50684E-2,1.2189875E-1,-2.6737177E-1,-3.7870446E-1,-1.5492334E0,7.043333E-1,-6.0849124E-1,1.6189259E0,-9.75998E-2,1.1798684E-2,-6.6436666E-1,3.6731482E-1,-3.3024853E-1,1.0818019E0,1.3875012E-1,-4.567865E-1,9.669908E-2,1.9513364E-1,2.972763E0,-4.897388E-1,-6.5423034E-2,7.466808E-1,-2.9961646E-1,3.7217093E-1,2.1285696E0],"categories":[],"categories_nodes":[],"categories_segments":[],"categories_sizes":[],"default_left":[0,0,0,0,0,0,0,0,0,0,0,0,0,0,0,0,0,0,0,0,0,0,0,0,0,0,0,0,0,0,0,0,0,0,0,0,0,0,0,0,0,0,0,0,0,0,0,0,0,0,0,0,0,0,0,0,0,0,0,0,0,0,0,0,0,0,0,0,0,0,0,0,0,0,0,0,0,0,0,0,0,0,0],"id":13,"left_children":[1,3,5,-1,7,9,11,13,15,17,19,21,23,25,27,29,31,-1,33,35,37,39,41,43,45,-1,47,49,51,53,55,-1,57,-1,-1,59,61,63,65,67,69,71,73,75,77,79,81,-1,-1,-1,-1,-1,-1,-1,-1,-1,-1,-1,-1,-1,-1,-1,-1,-1,-1,-1,-1,-1,-1,-1,-1,-1,-1,-1,-1,-1,-1,-1,-1,-1,-1,-1,-1],"loss_changes":[1.26334564E2,7.65321E1,1.3566603E2,0E0,4.8419724E1,1.9590155E2,1.0688774E2,2.8114792E1,1.8242823E1,1.5063754E2,1.9213968E2,2.1194487E2,2.4733447E2,1.0785374E1,1.7752396E1,2.2222086E1,1.875389E1,0E0,1.6442575E0,2.680072E1,6.1841675E1,2.0768797E2,5.8904285E2,1.9211362E2,2.5283835E2,0E0,1.045468E1,2.6884163E1,1.4025223E1,1.0690292E1,5.318302E0,0E0,5.613171E-1,0E0,0E0,1.6053042E0,2.618393E0,7.366182E1,3.1131683E1,3.6057712E2,2.8251318E2,6.4784344E2,2.5784277E2,3.9579224E2,2.3130331E2,1.480315E2,8.590967E1,0E0,0E0,0E0,0E0,0E0,0E0,0E0,0E0,0E0,0E0,0E0,0E0,0E0,0E0,0E0,0E0,0E0,0E0,0E0,0E0,0E0,0E0,0E0,0E0,0E0,0E0,0E0,0E0,0E0,0E0,0E0,0E0,0E0,0E0,0E0,0E0],"parents":[2147483647,0,0,1,1,2,2,4,4,5,5,6,6,7,7,8,8,9,9,10,10,11,11,12,12,13,13,14,14,15,15,16,16,18,18,19,19,20,20,21,21,22,22,23,23,24,24,26,26,27,27,28,28,29,29,30,30,32,32,35,35,36,36,37,37,38,38,39,39,40,40,41,41,42,42,43,43,44,44,45,45,46,46],"right_children":[2,4,6,-1,8,10,12,14,16,18,20,22,24,26,28,30,32,-1,34,36,38,40,42,44,46,-1,48,50,52,54,56,-1,58,-1,-1,60,62,64,66,68,70,72,74,76,78,80,82,-1,-1,-1,-1,-1,-1,-1,-1,-1,-1,-1,-1,-1,-1,-1,-1,-1,-1,-1,-1,-1,-1,-1,-1,-1,-1,-1,-1,-1,-1,-1,-1,-1,-1,-1,-1],"split_conditions":[9.333333E0,6E0,8.587338E0,1.0640258E0,1.2E0,-7.980833E-1,3E-1,2.8290002E0,9E0,2.6644534E2,1.8831664E0,1.5509274E1,1.9283167E1,3.3472748E2,1.405845E1,1.5000001E0,2.5994666E2,2.8952398E0,2.7E1,2.6718569E1,3.5333332E1,2.1414993E2,2.3725418E2,1.1212135E1,5.8999996E0,-3.9828306E-1,1.1212135E1,1.0787993E1,1.8764418E1,2.0748334E0,1.5192682E1,1.1771196E0,6.987333E0,2.0291664E-1,6.3832664E-1,2.1333334E1,-3.0225E-1,2.2E1,8.311245E0,1.35515E1,1.0279E1,1.7654688E1,1.7462784E1,1.1165805E1,5E-1,1.5349684E1,1.1013882E1,-3.48769E-1,5.590186E-1,-8.823936E-1,8.599358E-2,-1.0056055E0,7.406759E-2,-2.5404882E-1,6.9811285E-1,-6.275202E-1,-9.878176E-2,-1.8119703E-1,5.50684E-2,1.2189875E-1,-2.6737177E-1,-3.7870446E-1,-1.5492334E0,7.043333E-1,-6.0849124E-1,1.6189259E0,-9.75998E-2,1.1798684E-2,-6.6436666E-1,3.6731482E-1,-3.3024853E-1,1.0818019E0,1.3875012E-1,-4.567865E-1,9.669908E-2,1.9513364E-1,2.972763E0,-4.897388E-1,-6.5423034E-2,7.466808E-1,-2.9961646E-1,3.7217093E-1,2.1285696E0],"split_indices":[0,0,3,0,2,1,2,1,0,4,1,3,1,4,3,2,4,0,0,4,0,4,4,3,2,0,3,3,1,1,3,0,1,0,0,0,1,0,3,3,1,3,3,3,2,3,3,0,0,0,0,0,0,0,0,0,0,0,0,0,0,0,0,0,0,0,0,0,0,0,0,0,0,0,0,0,0,0,0,0,0,0,0],"split_type":[0,0,0,0,0,0,0,0,0,0,0,0,0,0,0,0,0,0,0,0,0,0,0,0,0,0,0,0,0,0,0,0,0,0,0,0,0,0,0,0,0,0,0,0,0,0,0,0,0,0,0,0,0,0,0,0,0,0,0,0,0,0,0,0,0,0,0,0,0,0,0,0,0,0,0,0,0,0,0,0,0,0,0],"sum_hessian":[2.485E3,5.5E1,2.43E3,2E0,5.3E1,3.7E1,2.393E3,3.9E1,1.4E1,9E0,2.8E1,1.199E3,1.194E3,8E0,3.1E1,1.1E1,3E0,4E0,5E0,7E0,2.1E1,5.47E2,6.52E2,1.134E3,6E1,5E0,3E0,9E0,2.2E1,3E0,8E0,1E0,2E0,3E0,2E0,2E0,5E0,1.5E1,6E0,3.09E2,2.38E2,2.71E2,3.81E2,6.7E1,1.067E3,4.7E1,1.3E1,1E0,2E0,4E0,5E0,2.1E1,1E0,1E0,2E0,5E0,3E0,1E0,1E0,1E0,1E0,1E0,4E0,1E1,5E0,5E0,1E0,2E2,1.09E2,1.62E2,7.6E1,1.1E2,1.61E2,1.03E2,2.78E2,6.3E1,4E0,1.31E2,9.36E2,2.2E1,2.5E1,4E0,9E0],"tree_param":{"num_deleted":"0","num_feature":"5","num_nodes":"83","size_leaf_vector":"1"}},{"base_weights":[1.9730346E-2,1.3678932E-1,-3.3053875E-1,-3.6611888E-1,2.7620098E-1,-1.6434282E-1,-1.4098334E0,-4.4298732E-1,5.8719563E0,7.621294E-1,-1.5546446E-1,-2.7579206E-1,2.3576787E0,2.1691391E0,-1.7168851E0,-1.9940642E-1,-3.9485042E0,-2.0010024E-1,2.302034E0,1.3190602E0,-3.6484545E-1,1.1755698E0,-5.180198E-1,3.9023253E-1,-5.9850174E-1,1.0004497E0,3.3217168E0,8.5185486E-1,3.2879734E-1,-2.0388644E0,1.3150434E0,-4.80044E-1,2.832449E0,3.715567E-1,-5.2631006E0,-8.454379E-2,2.1576173E0,1.9860873E0,-8.0147105E-1,1.3270912E-1,3.8931909E0,-1.5816075E0,-2.2888564E-1,2.8322342E-1,1.8757999E0,-3.178627E-1,-2.0355082E0,2.4358292E0,2.3852912E-1,1.7832814E-1,-3.036933E-2,-1.743764E0,-1.4687918E0,1.2494084E0,-3.2895598E-1,-3.3722246E-1,1.9873285E-1,3.5382466E0,4.4960433E-1,6.649231E-1,-4.6985582E-1,1.9945651E-1,-1.6830271E0,-4.6666515E-1,2.4455628E-1,5.354907E-1,2.6462455E0,1.956504E-1,2.564097E0,-3.237898E-1,9.3852144E-1,-1.8698556E0,1.3824548E-1,2.7372903E-1,2.543772E0,2.9676408E-1,-1.1195569E0,9.999985E-1,-1.0528927E-1,2.4867429E-1,-1.718029E-1,-1.322339E-1,8.6535776E-1,-1.8491277E0,-1.6442502E-1,-1.2375004E0,7.20977E-1,-1.1673088E0,-4.3783456E-1,1.523419E-1,-4.0049613E-1],"categories":[],"categories_nodes":[],"categories_segments":[],"categories_sizes":[],"default_left":[0,0,0,0,0,0,0,0,0,0,0,0,0,0,0,0,0,0,0,0,0,0,0,0,0,0,0,0,0,0,0,0,0,0,0,0,0,0,0,0,0,0,0,0,0,0,0,0,0,0,0,0,0,0,0,0,0,0,0,0,0,0,0,0,0,0,0,0,0,0,0,0,0,0,0,0,0,0,0,0,0,0,0,0,0,0,0,0,0,0,0],"id":14,"left_children":[1,3,5,7,9,11,13,15,17,19,21,23,25,27,29,31,33,-1,-1,35,37,39,41,43,45,47,-1,-1,49,51,53,55,57,59,61,63,65,67,69,71,73,75,77,79,-1,81,83,-1,85,-1,-1,87,-1,-1,89,-1,-1,-1,-1,-1,-1,-1,-1,-1,-1,-1,-1,-1,-1,-1,-1,-1,-1,-1,-1,-1,-1,-1,-1,-1,-1,-1,-1,-1,-1,-1,-1,-1,-1,-1,-1],"loss_changes":[1.0197654E2,1.3078851E2,1.11518555E2,1.9680328E2,3.063659E2,1.5271307E2,9.49353E1,3.4161737E2,6.40175E1,4.3167477E2,3.741209E2,1.1178356E2,2.6096332E2,7.7024345E0,7.7849976E1,3.2128024E2,1.4961304E2,0E0,0E0,5.4160345E2,2.3562863E2,4.6994397E2,1.8691737E2,1.0487585E2,1.4050102E2,1.11969345E2,0E0,0E0,4.0285954E-1,5.0481934E1,3.8848602E1,2.5459451E2,3.648151E2,2.849527E1,4.4868774E1,2.3023544E2,6.9936755E2,3.0948764E2,2.140998E2,2.5559265E2,6.210792E2,7.2231934E2,2.0990747E2,7.894021E1,0E0,1.1699802E2,3.466281E2,0E0,1.9883055E2,0E0,0E0,3.40038E1,0E0,0E0,5.728768E0,0E0,0E0,0E0,0E0,0E0,0E0,0E0,0E0,0E0,0E0,0E0,0E0,0E0,0E0,0E0,0E0,0E0,0E0,0E0,0E0,0E0,0E0,0E0,0E0,0E0,0E0,0E0,0E0,0E0,0E0,0E0,0E0,0E0,0E0,0E0,0E0],"parents":[2147483647,0,0,1,1,2,2,3,3,4,4,5,5,6,6,7,7,8,8,9,9,10,10,11,11,12,12,13,13,14,14,15,15,16,16,19,19,20,20,21,21,22,22,23,23,24,24,25,25,28,28,29,29,30,30,31,31,32,32,33,33,34,34,35,35,36,36,37,37,38,38,39,39,40,40,41,41,42,42,43,43,45,45,46,46,48,48,51,51,54,54],"right_children":[2,4,6,8,10,12,14,16,18,20,22,24,26,28,30,32,34,-1,-1,36,38,40,42,44,46,48,-1,-1,50,52,54,56,58,60,62,64,66,68,70,72,74,76,78,80,-1,82,84,-1,86,-1,-1,88,-1,-1,90,-1,-1,-1,-1,-1,-1,-1,-1,-1,-1,-1,-1,-1,-1,-1,-1,-1,-1,-1,-1,-1,-1,-1,-1,-1,-1,-1,-1,-1,-1,-1,-1,-1,-1,-1,-1],"split_conditions":[2.7097015E2,2.1269166E0,2.378453E1,3.1237131E1,1.1424834E1,2.2725668E1,-3.1397495E0,7.6E0,2E1,1.6E0,1.1521347E2,8.316672E-2,3.3472748E2,2.6E0,4.2666668E1,4.4E0,4.433002E1,-2.0010024E-1,2.302034E0,2.0666666E1,2.854E0,8.80845E1,1.3764416E1,2.2104116E1,3.5E1,2.7278113E2,3.3217168E0,8.5185486E-1,1.6666666E1,3.3333332E1,4.4E1,2.1243849E2,1.2181625E1,3.7275013E-1,-2.8001668E0,1.9140756E2,1.0964416E1,2.8290002E0,4.9E1,1.2414416E1,1.4118243E1,2.2666666E1,1.4101917E1,1.687398E1,1.8757999E0,3.2666668E1,4.3498325E0,2.4358292E0,1.7900002E-1,1.7832814E-1,-3.036933E-2,-1.0376667E0,-1.4687918E0,1.2494084E0,2E-1,-3.3722246E-1,1.9873285E-1,3.5382466E0,4.4960433E-1,6.649231E-1,-4.6985582E-1,1.9945651E-1,-1.6830271E0,-4.6666515E-1,2.4455628E-1,5.354907E-1,2.6462455E0,1.956504E-1,2.564097E0,-3.237898E-1,9.3852144E-1,-1.8698556E0,1.3824548E-1,2.7372903E-1,2.543772E0,2.9676408E-1,-1.1195569E0,9.999985E-1,-1.0528927E-1,2.4867429E-1,-1.718029E-1,-1.322339E-1,8.6535776E-1,-1.8491277E0,-1.6442502E-1,-1.2375004E0,7.20977E-1,-1.1673088E0,-4.3783456E-1,1.523419E-1,-4.0049613E-1],"split_indices":[4,1,3,3,1,3,1,2,0,2,4,1,4,2,0,2,4,0,0,0,1,4,1,3,0,4,0,0,0,0,0,4,3,1,1,4,1,1,0,1,3,0,1,3,0,0,1,0,1,0,0,1,0,0,2,0,0,0,0,0,0,0,0,0,0,0,0,0,0,0,0,0,0,0,0,0,0,0,0,0,0,0,0,0,0,0,0,0,0,0,0],"split_type":[0,0,0,0,0,0,0,0,0,0,0,0,0,0,0,0,0,0,0,0,0,0,0,0,0,0,0,0,0,0,0,0,0,0,0,0,0,0,0,0,0,0,0,0,0,0,0,0,0,0,0,0,0,0,0,0,0,0,0,0,0,0,0,0,0,0,0,0,0,0,0,0,0,0,0,0,0,0,0,0,0,0,0,0,0,0,0,0,0,0,0],"sum_hessian":[2.485E3,1.863E3,6.22E2,4.04E2,1.459E3,5.4E2,8.2E1,4E2,4E0,6.86E2,7.73E2,5.18E2,2.2E1,6E0,7.6E1,3.75E2,2.5E1,1E0,3E0,4.59E2,2.27E2,1.65E2,6.08E2,1.69E2,3.49E2,2E1,2E0,4E0,2E0,6.9E1,7E0,3.44E2,3.1E1,6E0,1.9E1,1.72E2,2.87E2,3.5E1,1.92E2,1.2E2,4.5E1,1.29E2,4.79E2,1.67E2,2E0,2.93E2,5.6E1,1E0,1.9E1,1E0,1E0,6.4E1,5E0,2E0,5E0,2.2E2,1.24E2,3E0,2.8E1,3E0,3E0,1E0,1.8E1,6.5E1,1.07E2,2.73E2,1.4E1,3E1,5E0,1.8E2,1.2E1,5E0,1.15E2,2.8E1,1.7E1,5.9E1,7E1,1.5E1,4.64E2,1.02E2,6.5E1,2.83E2,1E1,1.4E1,4.2E1,6E0,1.3E1,6E0,5.8E1,3E0,2E0],"tree_param":{"num_deleted":"0","num_feature":"5","num_nodes":"91","size_leaf_vector":"1"}},{"base_weights":[2.0647664E-2,8.2378555E-3,2.5784497E0,1.3817973E-1,-2.2171326E-1,5.4843545E-1,1.5932348E0,-5.81896E-1,3.1201908E-1,9.0884715E-1,-4.6564993E-1,1.6263695E0,-4.2359886E-1,3.3239864E-2,-1.6586806E0,8.315132E-1,-8.449032E-2,-7.435388E-1,1.9449602E0,-3.3779712E0,-3.3711225E-1,6.482506E-2,6.073311E-1,-3.0863258E-1,-1.511097E-2,-6.354881E-1,8.0336946E-1,-2.4966588E0,7.15015E-1,2.0816665E0,1.2085555E-1,1.12856785E-2,-9.938319E-1,-1.6936917E0,4.7070724E-1,1.0177782E0,6.302841E0,-5.8606434E0,1.6687638E0,-3.383986E0,-2.5247896E-1,1.3257752E-1,-3.1476465E-1,9.281412E-1,-3.0401993E-1,6.3138896E-1,-2.1852206E-1,-1.499019E-1,-1.2046901E0,-3.410545E-1,1.7849237E0,1.7014593E-1,1.0178157E0,-2.90869E-2,1.4143735E0,2.1941058E-2,-3.8453406E-1,-9.3887955E-1,-7.062477E-2,-2.9229906E-1,-9.523898E-1,-3.9540666E-1,6.3264227E-1,1.3633323E-1,1.660965E0,5.169341E0,1.1090978E0,-2.038913E0,6.057652E-1,7.8613657E-1,-1.1772223E0,-8.462641E-2,-2.039759E0,2.1543796E0,-8.5386E-2,-1.1415253E-1,-2.7491571E-2],"categories":[],"categories_nodes":[],"categories_segments":[],"categories_sizes":[],"default_left":[0,0,0,0,0,0,0,0,0,0,0,0,0,0,0,0,0,0,0,0,0,0,0,0,0,0,0,0,0,0,0,0,0,0,0,0,0,0,0,0,0,0,0,0,0,0,0,0,0,0,0,0,0,0,0,0,0,0,0,0,0,0,0,0,0,0,0,0,0,0,0,0,0,0,0,0,0],"id":15,"left_children":[1,3,5,7,9,11,-1,13,15,17,19,21,23,25,27,29,31,33,35,37,39,-1,-1,-1,41,43,45,47,49,51,53,55,57,59,61,63,65,67,69,71,73,-1,75,-1,-1,-1,-1,-1,-1,-1,-1,-1,-1,-1,-1,-1,-1,-1,-1,-1,-1,-1,-1,-1,-1,-1,-1,-1,-1,-1,-1,-1,-1,-1,-1,-1,-1],"loss_changes":[7.8888954E1,7.398433E1,6.3647476E1,1.9821234E2,2.4697511E2,9.071239E0,0E0,2.0406471E2,2.627003E2,2.736635E2,2.743777E2,1.8081083E0,1.2204903E0,1.01966934E2,2.2456494E2,4.9016235E2,6.3066612E1,7.2327835E1,3.895589E2,3.9819107E2,1.8119972E2,0E0,0E0,0E0,6.869125E-1,1.525256E2,1.8491106E2,2.497633E2,2.975841E2,3.9519714E2,3.5365738E2,5.255908E1,1.1102941E2,3.4193474E1,8.482277E1,2.0622134E2,4.2041376E2,1.6856573E2,6.8832054E1,1.9936105E2,1.6642659E2,0E0,9.138197E-3,0E0,0E0,0E0,0E0,0E0,0E0,0E0,0E0,0E0,0E0,0E0,0E0,0E0,0E0,0E0,0E0,0E0,0E0,0E0,0E0,0E0,0E0,0E0,0E0,0E0,0E0,0E0,0E0,0E0,0E0,0E0,0E0,0E0,0E0],"parents":[2147483647,0,0,1,1,2,2,3,3,4,4,5,5,7,7,8,8,9,9,10,10,11,11,12,12,13,13,14,14,15,15,16,16,17,17,18,18,19,19,20,20,24,24,25,25,26,26,27,27,28,28,29,29,30,30,31,31,32,32,33,33,34,34,35,35,36,36,37,37,38,38,39,39,40,40,42,42],"right_children":[2,4,6,8,10,12,-1,14,16,18,20,22,24,26,28,30,32,34,36,38,40,-1,-1,-1,42,44,46,48,50,52,54,56,58,60,62,64,66,68,70,72,74,-1,76,-1,-1,-1,-1,-1,-1,-1,-1,-1,-1,-1,-1,-1,-1,-1,-1,-1,-1,-1,-1,-1,-1,-1,-1,-1,-1,-1,-1,-1,-1,-1,-1,-1,-1],"split_conditions":[2.4068586E1,1.1672752E1,1.8565843E2,1.0787098E2,1.1521347E2,7.018371E1,1.5932348E0,6.638107E1,2.3909608E2,5.27217E1,1.3525925E2,2.5333334E1,2.5333334E1,4E-1,2.3000002E0,3E-1,3E0,1.7072504E1,3.9666668E1,1.7295666E1,1.19665E1,6.482506E-2,6.073311E-1,-3.0863258E-1,3.6E1,1.0464797E1,1.8089775E1,1.3084402E1,9.817524E1,1.5484185E1,1.112275E1,1.0279E1,4.7999997E0,5E-1,4E-1,7.999999E0,4.2666668E1,4.4E1,1.5349684E1,2.5666666E1,1.3715207E2,1.3257752E-1,4.0333332E1,9.281412E-1,-3.0401993E-1,6.3138896E-1,-2.1852206E-1,-1.499019E-1,-1.2046901E0,-3.410545E-1,1.7849237E0,1.7014593E-1,1.0178157E0,-2.90869E-2,1.4143735E0,2.1941058E-2,-3.8453406E-1,-9.3887955E-1,-7.062477E-2,-2.9229906E-1,-9.523898E-1,-3.9540666E-1,6.3264227E-1,1.3633323E-1,1.660965E0,5.169341E0,1.1090978E0,-2.038913E0,6.057652E-1,7.8613657E-1,-1.1772223E0,-8.462641E-2,-2.039759E0,2.1543796E0,-8.5386E-2,-1.1415253E-1,-2.7491571E-2],"split_indices":[1,1,4,4,4,4,0,4,4,4,4,0,0,2,2,2,2,3,0,1,1,0,0,0,0,3,3,3,4,3,1,1,2,2,2,2,0,0,3,0,4,0,0,0,0,0,0,0,0,0,0,0,0,0,0,0,0,0,0,0,0,0,0,0,0,0,0,0,0,0,0,0,0,0,0,0,0],"split_type":[0,0,0,0,0,0,0,0,0,0,0,0,0,0,0,0,0,0,0,0,0,0,0,0,0,0,0,0,0,0,0,0,0,0,0,0,0,0,0,0,0,0,0,0,0,0,0,0,0,0,0,0,0,0,0,0,0,0,0,0,0,0,0,0,0,0,0,0,0,0,0,0,0,0,0,0,0],"sum_hessian":[2.485E3,2.474E3,1.1E1,1.581E3,8.93E2,7E0,4E0,3.07E2,1.274E3,1.58E2,7.35E2,3E0,4E0,1.96E2,1.11E2,5.51E2,7.23E2,6.1E1,9.7E1,3E1,7.05E2,1E0,2E0,1E0,3E0,1.05E2,9.1E1,8.2E1,2.9E1,1.99E2,3.52E2,6.55E2,6.8E1,3.4E1,2.7E1,8.1E1,1.6E1,2E1,1E1,1.8E1,6.87E2,1E0,2E0,9E0,9.6E1,4.9E1,4.2E1,3.6E1,4.6E1,2.2E1,7E0,9.3E1,1.06E2,3.37E2,1.5E1,6.26E2,2.9E1,1.7E1,5.1E1,2.4E1,1E1,1.3E1,1.4E1,7.3E1,8E0,2E0,1.4E1,1.8E1,2E0,9E0,1E0,1E1,8E0,2E0,6.85E2,1E0,1E0],"tree_param":{"num_deleted":"0","num_feature":"5","num_nodes":"77","size_leaf_vector":"1"}},{"base_weights":[1.8260248E-2,2.7705392E-2,-2.9108367E0,-1.4289431E-2,8.055488E-1,-4.293547E0,2.4745904E-1,4.0476866E-2,-2.3466635E0,5.9224358E0,2.692713E-1,-9.591916E-1,-5.7209272E0,4.581559E-3,1.6232997E0,-2.9281323E0,1.3627988E0,-2.2386813E0,8.89155E0,-6.426063E-1,2.3135161E0,-1.4641286E-2,-4.1699496E-1,-3.5046417E-1,-2.0547283E0,2.1071598E-2,-4.6193857E0,-2.248362E0,3.2989466E0,-1.9207217E0,-4.592932E0,2.833981E0,-8.168788E-1,1.2120819E-1,-1.3977525E0,-6.853558E-1,1.2411073E1,-1.2949322E0,1.8893816E0,6.549176E0,1.2480783E0,-4.395855E-3,2.7196482E-1,-1.7250894E0,-2.4533007E-1,3.30064E-2,-1.8592016E0,1.9482218E0,-1.9622418E-1,-7.1425456E-1,1.7824626E0,-2.7167268E0,-7.569478E-1,6.8147995E-2,1.028669E0,2.1252309E-1,-4.684336E-1,1.6217251E-1,-1.0762883E-1,4.2297444E0,1.6381776E0,-5.050506E-1,1.1113812E0,1.443348E0,1.860851E-1,4.5936185E-1,2.475037E0,6.2492526E-1,-5.3792876E-1],"categories":[],"categories_nodes":[],"categories_segments":[],"categories_sizes":[],"default_left":[0,0,0,0,0,0,0,0,0,0,0,0,0,0,0,0,0,0,0,0,0,0,0,0,0,0,0,0,0,0,0,0,0,0,0,0,0,0,0,0,0,0,0,0,0,0,0,0,0,0,0,0,0,0,0,0,0,0,0,0,0,0,0,0,0,0,0,0,0],"id":16,"left_children":[1,3,5,7,9,11,-1,13,15,17,19,21,23,25,27,29,31,33,35,37,39,-1,-1,-1,-1,41,43,45,47,49,51,53,55,57,-1,-1,59,61,63,65,67,-1,-1,-1,-1,-1,-1,-1,-1,-1,-1,-1,-1,-1,-1,-1,-1,-1,-1,-1,-1,-1,-1,-1,-1,-1,-1,-1,-1],"loss_changes":[6.885769E1,8.098902E1,4.486473E1,3.006566E2,3.4690234E2,2.3068886E1,0E0,1.3066916E2,1.2046506E2,3.1068082E2,2.1772243E2,1.1087241E0,1.2543671E1,1.7165851E2,3.3828168E2,7.000369E1,2.7968643E1,2.341312E1,3.8236316E2,1.3623282E2,1.5428807E2,0E0,0E0,0E0,0E0,7.096656E1,2.969197E1,1.4969302E2,4.5894278E2,1.2629271E2,1.3418039E2,6.975281E0,5.64886E0,7.977898E-1,0E0,0E0,5.140869E0,1.3251013E2,6.0052105E1,4.711447E1,7.9917114E1,0E0,0E0,0E0,0E0,0E0,0E0,0E0,0E0,0E0,0E0,0E0,0E0,0E0,0E0,0E0,0E0,0E0,0E0,0E0,0E0,0E0,0E0,0E0,0E0,0E0,0E0,0E0,0E0],"parents":[2147483647,0,0,1,1,2,2,3,3,4,4,5,5,7,7,8,8,9,9,10,10,11,11,12,12,13,13,14,14,15,15,16,16,17,17,18,18,19,19,20,20,25,25,26,26,27,27,28,28,29,29,30,30,31,31,32,32,33,33,36,36,37,37,38,38,39,39,40,40],"right_children":[2,4,6,8,10,12,-1,14,16,18,20,22,24,26,28,30,32,34,36,38,40,-1,-1,-1,-1,42,44,46,48,50,52,54,56,58,-1,-1,60,62,64,66,68,-1,-1,-1,-1,-1,-1,-1,-1,-1,-1,-1,-1,-1,-1,-1,-1,-1,-1,-1,-1,-1,-1,-1,-1,-1,-1,-1,-1],"split_conditions":[2.32E1,8.799999E0,1.5058166E1,7.4E0,9.000001E0,4.2855545E1,2.4745904E-1,6.2E0,2.7804028E1,1.7102499E0,1.4316499E1,2.4333334E1,1.0333333E1,6E0,2.2373335E0,2.4666666E1,2.6E1,2.9E1,1.2181625E1,2.8823413E2,1.10509605E2,-1.4641286E-2,-4.1699496E-1,-3.5046417E-1,-2.0547283E0,4.6E0,3.1E1,2.8E1,1.36727495E1,2.3333334E1,2.1269166E0,1.3333333E1,8.316672E-2,1.6666666E1,-1.3977525E0,-6.853558E-1,1.8781992E2,3.1237131E1,1.7E1,1.4718583E1,2.0892412E1,-4.395855E-3,2.7196482E-1,-1.7250894E0,-2.4533007E-1,3.30064E-2,-1.8592016E0,1.9482218E0,-1.9622418E-1,-7.1425456E-1,1.7824626E0,-2.7167268E0,-7.569478E-1,6.8147995E-2,1.028669E0,2.1252309E-1,-4.684336E-1,1.6217251E-1,-1.0762883E-1,4.2297444E0,1.6381776E0,-5.050506E-1,1.1113812E0,1.443348E0,1.860851E-1,4.5936185E-1,2.475037E0,6.2492526E-1,-5.3792876E-1],"split_indices":[2,2,1,2,2,4,0,2,3,1,1,0,0,2,1,0,0,0,3,4,4,0,0,0,0,2,0,0,1,0,1,0,1,0,0,0,4,3,0,1,3,0,0,0,0,0,0,0,0,0,0,0,0,0,0,0,0,0,0,0,0,0,0,0,0,0,0,0,0],"split_type":[0,0,0,0,0,0,0,0,0,0,0,0,0,0,0,0,0,0,0,0,0,0,0,0,0,0,0,0,0,0,0,0,0,0,0,0,0,0,0,0,0,0,0,0,0,0,0,0,0,0,0,0,0,0,0,0,0,0,0,0,0,0,0,0,0,0,0,0,0],"sum_hessian":[2.485E3,2.478E3,7E0,2.352E3,1.26E2,5E0,2E0,2.299E3,5.3E1,1.1E1,1.15E2,2E0,3E0,2.249E3,5E1,4.6E1,7E0,3E0,8E0,8E1,3.5E1,1E0,1E0,1E0,2E0,2.242E3,7E0,1.5E1,3.5E1,3E1,1.6E1,4E0,3E0,2E0,1E0,2E0,6E0,6.4E1,1.6E1,6E0,2.9E1,2.156E3,8.6E1,5E0,2E0,1E1,5E0,1.9E1,1.6E1,2.9E1,1E0,4E0,1.2E1,1E0,3E0,1E0,2E0,1E0,1E0,4E0,2E0,6E1,4E0,4E0,1.2E1,2E0,4E0,2.3E1,6E0],"tree_param":{"num_deleted":"0","num_feature":"5","num_nodes":"69","size_leaf_vector":"1"}},{"base_weights":[1.4055511E-2,4.308871E-2,-9.8862016E-1,5.263923E-3,4.358466E0,-2.817157E0,2.9747948E-1,3.1482138E-2,-1.2517127E0,1.0648001E0,7.875019E0,-6.9698244E-1,-4.749521E0,-2.4822173E0,9.243393E-1,1.607115E-2,3.3055568E0,